529 20
228 0.614018 3.2702 -0.0729161 0.652689 0.951758 -2.9514 -0.178146 -1.54709 1.13945 -1.71759 -0.718483 -1.10265 0.935735 0.375771 0.362201 0.776663 -0.111074 -0.948286 0.0910278 -0.0273591
270 0.769836 3.26683 -0.208036 0.603585 1.01476 -3.0359 -0.30272 -1.55139 1.11281 -1.55147 -0.860328 -0.96752 1.0441 0.221096 0.240619 0.873919 0.0370816 -0.747298 -0.00890776 -0.11298
152 0.283602 3.39612 -0.188455 0.511207 0.945443 -2.99809 -0.265076 -1.58953 1.15282 -1.71126 -1.0012 -0.839481 0.726319 0.353711 0.291117 0.857829 0.208661 -0.866434 0.321585 0.108553
155 0.986253 3.25888 -0.196759 0.544616 0.851676 -2.98657 -0.281765 -1.58736 1.05412 -1.62456 -0.978909 -0.978587 0.860012 0.48922 0.338956 0.922567 0.171819 -0.649734 0.023697 0.189523
263 0.738239 3.24768 -0.0544554 0.671015 0.819633 -3.16133 0.0118993 -1.57713 1.16361 -1.77546 -0.968331 -0.806395 0.831658 0.31907 0.366699 0.881178 -0.305238 -1.05501 -0.108117 -0.121936
204 0.704822 3.51157 -0.157837 0.756206 1.07178 -3.04441 -0.0987138 -1.56984 1.16037 -1.61588 -0.731389 -0.868986 0.868989 0.31541 0.361805 1.21378 -0.0534462 -0.613517 0.303699 -0.0633684
416 1.10404 3.28836 -0.0666769 0.841508 1.17893 -2.79794 -0.0486262 -1.57565 1.10098 -1.80132 -0.927805 -0.645801 1.04795 0.356107 0.132278 0.887494 0.00318129 -0.762859 -0.0482203 -0.201595
394 0.831282 3.37123 -0.0901507 0.65919 1.35142 -2.79622 -0.108102 -1.64485 1.23697 -1.72241 -0.666029 -0.814225 0.882221 0.328439 0.497212 0.865044 -0.039552 -0.674191 0.00934405 -0.149557
349 0.611752 3.3887 -0.345419 0.495705 1.10966 -3.04929 -0.256602 -1.59009 1.22189 -1.66647 -0.875621 -0.702675 1.08698 0.153312 0.362098 0.815309 -0.13098 -0.820049 0.00847427 -0.129299
423 0.651231 3.40316 -0.444193 0.367455 1.08686 -2.98884 -0.32271 -1.60997 1.33486 -1.51805 -0.854468 -1.01004 1.03563 0.264525 0.38585 0.768938 0.100103 -0.811967 0.0402325 -0.0706143
320 0.63252 3.38292 -0.45215 0.308362 1.08655 -3.01871 -0.323249 -1.58695 1.33844 -1.5781 -0.830643 -0.831519 0.967811 0.367891 0.348886 0.802666 0.00676266 -0.794019 -0.0232103 -0.128104
301 0.717336 3.39108 -0.234112 0.534617 1.40185 -2.73604 -0.196969 -1.56643 1.13805 -1.69772 -0.814114 -0.690387 1.14771 0.169137 0.305085 0.787926 -0.0611844 -0.81247 0.0124038 -0.0554842
419 0.419454 3.32761 -0.146363 0.607734 1.15978 -2.87396 -0.29631 -1.63888 1.19843 -1.62346 -0.789797 -0.915838 0.833863 0.242207 0.466793 0.836453 -0.214193 -0.752833 0.268545 -0.185097
234 0.523402 3.34668 -0.381438 0.502451 1.03358 -3.06419 -0.358191 -1.56213 1.18476 -1.6606 -0.934206 -0.798041 1.14048 0.0276103 0.448842 0.817023 -0.105911 -0.654063 -0.0475722 -0.0239629
124 0.683083 3.31837 -0.218467 0.560185 0.880939 -3.02197 -0.423376 -1.60746 1.17418 -1.5128 -0.85371 -0.851658 1.08455 0.0881019 0.413806 0.8492 -0.136123 -0.639989 -0.149423 -0.0820893
334 0.789817 3.21849 -0.16094 0.523302 1.32102 -2.83998 -0.171434 -1.48999 1.27177 -1.62457 -0.71026 -0.769266 1.01158 0.45236 0.332556 0.794626 0.013667 -0.933198 -0.0652838 0.136176
510 0.693479 3.30949 -0.102524 0.53749 1.04703 -2.83179 -0.527856 -1.61582 1.42264 -1.63483 -0.735138 -0.999493 0.622218 0.321171 0.461282 0.849981 -0.097732 -0.844675 -0.331868 -0.0288674
72 0.895072 3.33491 -0.203862 0.492703 1.2361 -2.85016 -0.299426 -1.63051 1.1853 -1.65704 -0.793348 -0.763022 0.941127 0.206496 0.568069 0.777739 -0.180566 -0.80586 -0.0407437 -0.0639338
269 0.902159 3.30503 -0.355912 0.329806 1.43976 -2.68418 -0.166488 -1.64329 0.90933 -1.79372 -0.719366 -0.911475 0.850583 0.203334 0.690621 1.04631 -0.278949 -0.850526 -0.0868188 -0.143338
215 0.946015 3.51867 -0.509039 0.276143 1.1582 -2.89472 -0.296447 -1.57794 1.05319 -1.7419 -0.735965 -0.952361 0.876444 0.46454 0.577385 1.13211 -0.280763 -0.855222 -0.0369346 -0.0823682
225 0.660721 3.35602 -0.250812 0.497374 1.11158 -3.01814 -0.391173 -1.5754 1.24264 -1.6373 -0.868688 -0.761458 1.03247 0.201088 0.426936 0.855341 -0.114282 -0.81433 -0.0218036 -0.0916566
494 0.535271 3.30504 -0.315266 0.353004 0.988093 -3.04052 -0.240298 -1.57563 1.25299 -1.66483 -0.751805 -0.938784 0.754899 0.408063 0.373567 0.735237 -0.0485358 -0.84343 0.0529214 -0.326302
376 0.497492 3.34993 -0.209092 0.655133 0.898546 -2.99273 -0.021237 -1.60552 1.11052 -1.78244 -0.867533 -0.776352 0.906447 0.232335 0.372588 0.763551 -0.438171 -0.867164 -0.0155624 -0.404702
197 0.651553 3.3236 -0.316536 0.531264 1.23168 -2.94231 0.0478963 -1.59058 1.05772 -1.84147 -0.865211 -0.766256 0.979555 0.172755 0.373982 0.747768 0.00759712 -0.798772 0.129503 -0.238879
214 0.724731 3.26196 -0.0472153 0.732733 1.25974 -2.78947 -0.116295 -1.55535 1.37992 -1.57575 -0.642265 -0.868422 0.85773 0.708848 0.319909 0.892793 0.0244956 -0.918329 0.190549 -0.137719
413 0.74261 2.96225 0.104836 0.580716 1.42692 -2.42865 -0.0205863 -1.61523 1.11349 -1.65888 -0.641 -0.633786 0.951111 0.524863 0.150158 0.848781 -0.0963426 -0.827127 -0.0236835 -0.20235
115 0.910705 3.36783 -0.110704 0.712103 1.40721 -2.73519 -0.0362011 -1.70962 1.11994 -1.80592 -0.932279 -0.628962 0.968418 0.610807 0.248661 0.803391 -0.0463986 -0.856504 0.221474 -0.235926
142 1.02353 3.48553 -0.14509 0.527228 1.25895 -2.79061 -0.186831 -1.67677 1.10481 -1.79751 -0.761042 -0.51932 1.06326 0.639478 0.328466 0.999537 0.0594805 -0.787108 -0.0579714 -0.00113141
280 0.804138 3.26373 -0.330395 0.281295 1.32123 -2.74981 -0.434547 -1.67003 1.13562 -1.69859 -0.773865 -0.910115 0.943894 0.319594 0.425157 0.854561 -0.0616609 -0.799413 0.129469 -0.0247257
485 0.93696 3.24197 -0.216571 0.583833 1.46958 -2.62831 -0.150766 -1.61499 1.15864 -1.7947 -0.686195 -0.604507 1.04995 0.578943 0.244822 0.831426 -0.0238286 -0.881252 0.191136 -0.159772
497 0.803925 3.40738 -0.164658 0.756754 1.31255 -2.83804 -0.12399 -1.5595 1.04604 -1.97492 -0.782625 -0.755101 0.96756 -0.00148406 0.37299 0.784835 0.0778706 -0.79024 -0.166508 0.0429136
436 0.875927 3.3193 -0.112276 0.787975 1.12293 -2.9399 -0.225336 -1.54249 1.15754 -1.81519 -0.78727 -0.892044 0.946131 0.227872 0.243622 0.841253 0.0469633 -0.816423 -0.0164747 -0.162915
125 0.593057 3.42514 -0.438618 0.363321 0.978681 -2.96262 -0.16925 -1.65859 1.19044 -1.62734 -0.893297 -0.677746 1.0763 0.163686 0.358685 0.786968 -0.0931317 -0.713262 0.0273865 -0.113647
448 0.693495 3.29818 -0.227352 0.496013 0.956862 -2.90344 -0.330732 -1.60086 1.20907 -1.6045 -0.744771 -1.10168 1.05611 0.351094 0.373438 0.807752 -0.0275344 -0.796488 -0.257351 0.00527168
305 0.405369 3.33835 -0.237813 0.52596 1.10469 -2.99916 -0.447899 -1.52113 1.28062 -1.54574 -0.815006 -0.834434 0.872813 0.191807 0.440362 0.943107 -0.0947279 -0.74524 0.049614 -0.0367722
272 0.586555 3.51984 -0.4874 0.392416 1.07562 -3.13686 -0.190633 -1.53434 1.28966 -1.71363 -0.641954 -0.962645 0.988205 0.310728 0.448112 1.24225 -0.359816 -1.06371 -0.0596029 -0.116415
509 0.615986 3.45817 -0.505189 0.326462 1.15339 -3.14351 -0.16914 -1.51736 1.36721 -1.85635 -0.680326 -0.97473 0.924345 0.41251 0.318626 1.31002 -0.258635 -0.945769 -0.0616728 -0.287126
516 0.707524 3.7818 -0.507725 0.457263 1.15657 -3.18045 -0.134353 -1.62179 1.30045 -1.86011 -0.75349 -1.00203 0.977438 0.286437 0.335534 1.20006 -0.310654 -0.980416 0.14178 -0.128347
207 0.562717 3.39941 -0.372624 0.293625 0.863841 -3.09074 0.000531681 -1.64395 1.37359 -1.76884 -0.747054 -0.781918 0.731883 0.300302 0.353826 1.09241 -0.273382 -0.757793 -0.150871 -0.305402
84 0.648435 3.25171 -0.26328 0.579939 0.928738 -3.02766 -0.283386 -1.58639 1.11527 -1.63429 -0.869141 -1.04562 0.861886 0.213392 0.341345 0.801349 -0.0342626 -0.718182 -0.0898367 -0.203033
37 0.404825 3.32393 -0.0575604 0.668511 1.0883 -2.94817 0.0245168 -1.63715 1.04203 -1.78451 -0.776446 -0.962854 0.818424 0.271648 0.249251 0.863815 -0.0121625 -0.803931 -0.00604793 -0.42582
254 0.88684 3.32506 -0.176006 0.636933 1.28466 -2.72815 -0.0912979 -1.56905 1.26177 -1.82677 -0.66205 -0.881368 0.79141 0.283353 0.420051 0.788996 0.075231 -0.890306 -0.0572157 0.0151953
459 0.675371 3.40181 -0.280508 0.457487 1.18325 -2.97772 -0.215291 -1.62212 1.26953 -1.59229 -0.869178 -0.674876 0.902344 0.249311 0.389797 0.960062 0.203349 -0.73977 0.272139 0.014309
293 0.582503 3.23914 -0.304784 0.48268 1.0026 -3.06554 -0.31688 -1.50671 1.13677 -1.6698 -0.827068 -0.772772 0.958919 0.115681 0.468234 0.832998 -0.0570823 -0.755469 -0.255189 -0.0426994
329 0.785154 3.29168 -0.267195 0.485499 1.18531 -2.92551 -0.419082 -1.54737 1.31221 -1.67232 -0.681804 -1.03693 0.650684 -0.0365722 0.543218 0.879372 0.0153522 -0.749818 -0.24024 0.0249213
185 0.519902 3.2787 -0.370957 0.46939 0.943281 -2.97043 -0.274325 -1.57617 1.34427 -1.51965 -0.819316 -0.780849 0.89063 0.106507 0.281815 0.755624 -0.0760105 -0.66944 -0.200271 -0.156385
90 0.428636 2.86978 -0.182781 0.169708 0.905131 -2.68708 -0.162813 -1.47408 1.09491 -1.31568 -0.808698 -1.041 0.791839 0.225616 0.296923 1.02291 -0.00625407 -0.844814 -0.0848069 -0.123485
133 0.546487 3.41799 -0.327748 0.44887 1.06843 -2.91579 -0.188348 -1.5657 1.26214 -1.52467 -0.88433 -0.826699 1.00338 0.259718 0.477792 0.775931 -0.001126 -0.879499 0.0319515 0.024188
53 0.7859 3.32232 -0.16591 0.633101 0.886614 -3.04977 -0.338175 -1.63573 1.20693 -1.70733 -0.819817 -0.934694 1.03942 0.144169 0.213744 0.782302 -0.137902 -0.749706 -0.165079 -0.0448882
168 0.642321 3.44413 -0.168812 0.601178 1.2532 -2.96203 -0.211891 -1.58311 1.30259 -1.90055 -0.662481 -1.0711 0.719498 0.0539963 0.329253 0.810448 0.152119 -0.885382 -0.0415983 -0.180121
167 0.44082 3.27064 -0.105249 0.633666 1.31239 -2.89147 -0.172038 -1.55414 1.0778 -1.90826 -0.842416 -0.635745 0.780161 0.224191 0.223493 0.858703 0.12766 -0.865562 0.244235 -0.0958941
404 0.790189 3.24061 -0.0575372 0.694832 1.20195 -2.8315 -0.529576 -1.50889 1.21806 -1.81447 -0.763803 -0.637852 0.876559 0.28707 0.422042 0.887315 -0.0681873 -0.675121 0.000765566 0.106697
101 0.471704 3.29664 0.0195499 0.562667 1.24641 -2.81771 -0.173086 -1.64162 1.07964 -1.63908 -0.758011 -0.99759 1.10605 0.431389 0.638789 1.05553 -0.340374 -0.789029 0.0882194 0.142467
517 0.595381 3.19624 -0.0912586 0.477569 1.01355 -2.70525 -0.397231 -1.66408 0.984493 -1.7519 -0.958161 -1.25128 0.647265 0.412982 0.386751 0.82492 -0.246844 -0.922371 0.311543 -0.406747
437 0.531851 3.29358 -0.0801885 0.60993 0.954844 -2.96712 -0.237342 -1.59995 1.08853 -1.79696 -0.983565 -1.01599 0.689302 0.398455 0.323384 0.827307 -0.0448714 -0.963991 0.242291 -0.138421
346 0.284713 3.32342 -0.0461683 0.71293 1.1164 -2.90187 -0.32223 -1.50784 1.20164 -1.58175 -0.663069 -0.85822 0.783359 0.456635 0.522453 0.871275 -0.0296395 -0.499644 0.0447188 -0.253755
14 0.363978 3.33751 -0.117886 0.650017 1.21343 -2.94353 -0.477901 -1.52135 1.12232 -1.65516 -0.762957 -0.896439 0.883011 0.896895 0.420801 0.997948 0.0187161 -0.799131 -0.186131 -0.213194
339 0.476919 3.29295 -0.0639734 0.485777 1.28291 -2.82589 -0.536751 -1.57254 1.04391 -1.78351 -0.797746 -0.874011 0.670531 0.95581 0.529917 1.06161 -0.0312124 -0.717096 -0.325614 -0.358509
512 0.758692 3.34587 -0.243768 0.432384 1.14473 -3.08229 -0.510847 -1.5554 1.04649 -1.80412 -0.555666 -0.770598 0.983639 0.58347 0.437032 1.25411 -0.305624 -0.917833 -0.147416 0.0340533
138 0.475575 3.40038 -0.137657 0.608244 1.11973 -2.82905 -0.446783 -1.554 1.06673 -1.92269 -0.859924 -0.941334 0.937199 0.617995 0.303698 0.930845 -0.253196 -0.924031 -0.40357 -0.205908
477 0.539527 3.72475 -0.32952 0.656918 1.29206 -3.05646 -0.159639 -1.65039 0.947564 -1.7139 -1.05796 -0.967554 0.892444 0.599312 0.653303 0.999499 -0.00199518 -0.822073 -0.274392 0.0696712
390 0.434015 3.91694 -0.251093 0.758954 1.00629 -3.0224 -0.196163 -1.64467 1.13872 -1.7283 -0.866694 -1.09829 1.07463 0.417867 0.511421 0.920564 0.050866 -0.947635 -0.205329 0.174858
156 0.638407 3.24228 -0.111595 0.496543 0.864462 -2.93549 -0.398777 -1.58497 1.21244 -1.58229 -0.940099 -1.03303 0.713353 0.379584 0.510598 0.954557 -0.375117 -0.99478 -0.214355 0.0469583
356 0.877923 3.24004 0.211708 0.62308 0.55786 -3.2394 -0.108769 -1.5736 1.24224 -1.88597 -0.974072 -0.896345 0.830278 0.354054 0.504238 0.943288 -0.249626 -1.05882 -0.214358 0.251149
74 0.76972 3.2801 -0.150493 0.619966 0.752595 -3.21977 -0.364848 -1.49388 1.35098 -1.63482 -0.810466 -0.898629 0.962181 0.465177 0.44191 0.967186 -0.0230544 -0.768511 -0.253179 0.198451
78 0.913519 3.1721 -0.0267596 0.657709 0.727426 -3.1518 -0.167894 -1.4845 1.01576 -1.6465 -0.935352 -0.850746 1.04657 0.346164 0.607195 0.974851 -0.330569 -0.937084 -0.0982569 0.169773
68 0.454127 3.4097 -0.100757 0.566309 1.18481 -2.76698 -0.35327 -1.60524 1.19596 -1.75224 -0.772593 -1.24891 1.03671 0.509097 0.465242 0.864802 -0.169743 -0.85792 0.0648001 0.185079
149 0.241547 2.68645 0.204201 0.300911 1.45635 -2.36562 -0.0802093 -1.543 1.1357 -1.43049 -0.845048 -0.893113 0.89944 0.544163 0.311215 1.22694 -0.0498979 -0.595498 -0.0358557 -0.0123444
406 0.756915 3.29773 -0.0239246 0.814284 1.25459 -2.71408 -0.216925 -1.53992 1.31413 -1.64298 -0.676638 -0.949746 0.942312 0.481929 0.42455 0.841889 -0.0908085 -0.820476 0.143532 -0.00336752
36 0.865582 3.35437 -0.187019 0.68046 1.19804 -2.92833 -0.115665 -1.59222 1.17104 -1.78941 -0.861661 -0.797857 0.967653 0.197855 0.195295 0.744027 0.0513174 -0.775743 0.105793 -0.175477
7 0.607323 3.43713 -0.386748 0.42911 1.07656 -2.95158 -0.319784 -1.60302 1.31005 -1.50398 -0.778517 -0.845991 0.969357 0.187248 0.367674 0.808771 0.0613873 -0.679162 0.00953158 -0.0779112
262 0.708193 2.89934 -0.0722329 0.191305 1.03101 -2.49465 -0.446809 -1.49619 1.00274 -1.78025 -0.884088 -0.81078 0.703618 0.360261 0.397557 0.970692 -0.0423297 -0.782511 -0.019324 -0.00988748
248 0.521164 3.37895 -0.269 0.409048 1.14588 -2.9755 -0.221909 -1.64453 1.11469 -1.8442 -0.668087 -1.04972 0.733926 0.295299 0.351115 1.35106 -0.250731 -0.951145 -0.0687611 -0.223949
109 0.781834 3.71085 -0.458292 0.453556 1.14474 -3.18816 -0.337135 -1.66984 1.15444 -2.02648 -0.652582 -0.912683 0.91226 0.283391 0.38604 1.24508 -0.224468 -0.942296 -0.0786462 -0.0963778
415 0.799675 3.7892 -0.573681 0.444824 1.0815 -3.25429 -0.239424 -1.61483 1.2186 -1.97869 -0.774174 -0.95727 0.999273 0.304326 0.409716 1.22613 -0.274757 -0.941395 0.00290747 -0.0426313
146 0.633869 3.63626 -0.392206 0.346089 1.17661 -2.96224 -0.262837 -1.60346 1.16138 -1.92079 -0.718182 -1.0019 0.898333 0.200248 0.257196 1.22186 -0.0795174 -0.988032 0.18318 0.0700288
198 0.701265 3.17718 -0.149196 0.361927 1.22585 -2.73476 -0.142599 -1.56513 1.01193 -1.83217 -0.662055 -0.872433 0.601417 0.080579 0.424501 1.18075 -0.0761277 -0.873 -0.149024 -0.0155138
372 0.894672 3.74308 -0.512987 0.514001 1.21663 -3.24003 -0.161156 -1.60173 1.09738 -2.01967 -0.649609 -0.896098 1.08576 0.35062 0.503144 1.15032 -0.42794 -0.98791 -0.0167408 -0.0224478
335 0.67679 3.45539 -0.134308 0.538064 1.2203 -2.866 -0.337457 -1.62473 1.12634 -1.91173 -0.612102 -1.01309 0.826004 0.161583 0.364607 1.05478 -0.40554 -1.00656 0.00324215 -0.312417
275 0.495082 3.56838 -0.0773273 0.773765 1.08713 -2.89694 -0.508609 -1.69909 1.21775 -1.67683 -0.771315 -0.999551 0.965923 0.588752 0.369386 1.00429 -0.175536 -0.764636 0.03305 -0.181779
433 0.385343 3.27721 -0.00231789 0.737064 1.04854 -2.73032 -0.492275 -1.54323 1.32375 -1.80125 -0.796752 -1.0939 0.580687 0.331991 0.430554 0.965596 -0.0957102 -0.765087 0.278385 -0.0604225
91 0.595752 3.45617 -0.206972 0.380886 1.25064 -2.68633 -0.0611059 -1.7176 1.02876 -1.76562 -0.82322 -1.14477 1.05316 0.415785 0.492535 0.903064 -0.248654 -0.955453 -0.0871733 0.271921
287 0.407721 3.4549 -0.1585 0.571195 1.10022 -2.68878 -0.246822 -1.66298 1.05421 -1.62645 -0.840722 -1.20855 1.04779 0.22371 0.302558 0.862493 0.0176209 -1.02661 -0.11696 0.104561
344 0.392432 3.71115 -0.394349 0.6214 1.23127 -3.01653 -0.303805 -1.60402 0.956302 -1.8437 -1.13638 -0.884014 0.768455 0.403513 0.552888 0.956716 -0.0897404 -1.00471 -0.299242 -0.124131
179 0.606536 3.25005 -0.118166 0.339151 1.26778 -2.81603 -0.0395765 -1.52365 1.14555 -1.53688 -1.06495 -0.99012 0.518929 0.0252904 0.319631 1.3181 0.0173806 -1.04528 -0.443342 0.0144967
41 0.818055 3.84301 -0.467209 0.705446 1.17329 -3.16763 -0.114027 -1.58981 1.13982 -1.92482 -0.680465 -0.98949 0.865901 0.170758 0.298107 1.18572 -0.0663394 -0.898025 -0.143004 -0.0912084
29 0.664257 3.42349 -0.299538 0.5215 1.10694 -3.15297 -0.219172 -1.55584 1.04941 -1.94083 -0.809442 -0.858717 1.02711 0.522708 0.268258 1.2016 -0.308201 -0.889351 -0.013204 -0.167558
216 0.846274 3.60677 -0.438634 0.562796 1.34721 -3.07163 -0.233687 -1.57706 1.12003 -2.04651 -0.649989 -1.04319 0.869573 0.0905361 0.529091 1.10745 -0.329225 -0.824293 -0.00465444 -0.0658103
1 0.652854 3.41379 -0.23529 0.534858 1.15788 -2.98633 0.105626 -1.59019 1.1729 -1.76308 -0.548528 -1.09344 0.935381 0.455518 0.341752 1.1205 0.030023 -0.668552 0.181993 -0.11681
307 0.516484 3.33656 -0.0944063 0.745964 1.05033 -2.98928 -0.431556 -1.52504 1.29485 -1.51868 -0.56495 -0.98932 1.16812 0.0567831 0.437606 0.845197 -0.0940771 -0.631495 -0.0765768 0.0199181
187 0.635049 3.3525 -0.19924 0.705729 0.842923 -3.02906 -0.193549 -1.64826 1.18255 -1.70602 -0.772825 -0.965716 0.930567 0.206228 0.202641 0.763613 -0.00473701 -0.753946 -0.114069 -0.331267
446 0.781665 3.25738 -0.179531 0.587787 1.22227 -2.91921 -0.173526 -1.48009 1.03333 -1.88532 -0.704094 -0.889843 0.793486 -0.0753376 0.365123 0.874819 0.125072 -0.756207 -0.232135 -0.0587286
424 0.871709 3.26647 -0.102913 0.593661 1.35497 -2.88318 -0.33138 -1.53676 1.06153 -1.90095 -0.814149 -0.70284 0.771644 0.0801458 0.445301 0.828022 -0.0563268 -0.853395 0.030762 -0.0918693
104 0.898684 3.30234 -0.0511991 0.722378 1.36188 -2.8291 -0.0783543 -1.55227 1.14315 -1.78945 -0.78409 -0.746832 0.706571 0.074415 0.416023 0.861708 0.237305 -0.951442 -0.0270386 -0.127031
241 0.623075 3.38382 -0.0900797 0.734246 1.22186 -2.86469 -0.127708 -1.58265 1.1832 -1.81806 -0.716615 -0.707792 0.861346 0.0393695 0.477687 0.797827 -0.0428665 -0.713206 -0.0390835 -0.0630431
298 0.606151 3.4045 -0.0415759 0.679904 1.13579 -2.85346 -0.220824 -1.64656 1.09681 -1.74403 -0.705419 -1.27626 0.752252 0.274565 0.58059 0.845369 -0.0954883 -0.914503 0.270642 0.0336016
323 0.732942 3.41637 -0.0493747 0.7752 1.32357 -2.83897 -0.316077 -1.53675 1.20209 -1.78709 -0.613964 -0.750275 1.13047 0.111936 0.261547 0.863939 0.0463658 -0.76737 -0.00942298 0.00784613
461 0.902227 3.35679 -0.258316 0.434663 1.23733 -2.84093 -0.185431 -1.56362 1.24486 -1.76349 -0.694202 -0.905306 0.796238 0.116815 0.519642 0.840586 -0.0294091 -0.969073 -0.131911 0.0943904
282 0.689643 3.31333 -0.215927 0.632194 0.884084 -3.03691 -0.422189 -1.56108 1.20134 -1.63927 -0.838786 -0.817934 0.930846 0.074934 0.417088 0.88251 0.052795 -0.597489 -0.0914138 0.0462932
218 0.612705 3.35143 -0.305175 0.324814 1.10955 -3.06395 -0.350945 -1.61516 1.37028 -1.51239 -0.642394 -0.955219 1.07477 0.134401 0.374462 0.777328 -0.104129 -0.911722 -0.0622587 -0.0189905
417 0.530755 3.31637 -0.0766035 0.59547 1.04546 -2.8966 -0.439222 -1.66852 1.13298 -1.67215 -0.648552 -1.11808 0.776833 0.0532272 0.489346 0.846874 -0.00375286 -0.731819 0.00487704 -0.175682
434 0.65874 3.27298 -0.464523 0.397952 0.914373 -3.11224 -0.146236 -1.5492 1.32465 -1.42943 -0.762393 -0.904315 1.02626 0.142739 0.393938 0.806489 0.00831519 -0.700567 0.0717116 -0.156981
359 0.883314 3.20764 0.010988 0.674558 0.696999 -3.10304 -0.157426 -1.58367 1.12683 -1.80539 -1.00543 -1.09041 0.887972 0.242582 0.562605 0.840228 -0.310917 -1.026 -0.156648 0.111708
127 0.502842 3.17392 -0.0949418 0.67013 1.14156 -2.92036 -0.257964 -1.47563 1.12474 -1.47798 -0.995612 -0.94011 0.977987 0.38275 0.373304 1.01991 -0.260512 -0.891223 -0.00490498 -0.117734
122 0.433169 3.0656 -0.00805745 0.501966 1.28465 -2.5835 -0.0863919 -1.50434 1.07316 -1.40512 -1.01984 -0.940502 0.848233 0.262911 0.32628 1.11198 -0.178389 -0.904221 -0.198301 -0.0852431
300 0.508306 3.12264 -0.0592607 0.262235 1.11312 -2.67942 -0.491951 -1.60048 1.00185 -1.59351 -1.00941 -0.896415 0.814496 0.447396 0.499459 1.17122 -0.394424 -0.678843 -0.178592 0.143526
389 0.444781 3.64365 -0.261481 0.612803 1.35017 -3.0261 -0.0215962 -1.67943 0.979176 -1.83824 -0.996758 -1.02139 0.911944 0.531127 0.654135 0.949072 -0.0847268 -0.890738 -0.303629 -0.098441
118 0.327522 3.77788 -0.294673 0.592736 1.18406 -3.09716 -0.224961 -1.67379 1.04768 -1.77576 -0.924619 -0.941283 0.896523 0.579117 0.575689 1.05749 -0.0490196 -0.978426 -0.381931 -0.209167
397 0.324888 3.82271 -0.398602 0.610808 1.18333 -3.11334 -0.238595 -1.67104 1.04022 -1.79493 -1.03249 -0.862954 0.839293 0.559957 0.721371 1.01672 -0.0343571 -1.01568 -0.301541 -0.0726994
310 0.222957 3.39605 -0.274877 0.422285 1.26639 -2.9408 0.00674245 -1.63134 0.947658 -1.53856 -1.02917 -0.933935 0.902825 0.452969 0.51106 1.11717 0.115322 -0.867407 -0.458282 -0.151996
175 0.500003 3.23877 -0.0415057 0.571527 1.13018 -2.82046 -0.706181 -1.56715 1.14626 -1.77478 -0.711101 -0.76121 0.821208 0.471999 0.505598 0.966834 -0.211013 -0.839262 -0.216527 -0.105609
253 0.302911 3.27349 -0.0147349 0.476009 1.17761 -2.77817 -0.276661 -1.66722 1.16571 -1.69063 -0.831133 -1.21645 0.762472 0.427793 0.39625 0.936799 -0.239914 -0.855441 0.101353 -0.285774
194 0.492745 3.36345 -0.0908234 0.609993 0.85636 -2.94951 -0.210288 -1.66389 1.02353 -1.77935 -0.94861 -0.910642 0.711084 0.232665 0.314786 0.854156 -0.161692 -0.824434 0.00943036 -0.292814
108 0.618212 3.29193 -0.249433 0.580539 1.11303 -2.96216 -0.21198 -1.55667 1.10719 -1.77987 -0.810093 -0.740118 0.988291 0.132084 0.374374 0.785805 0.0177685 -0.725247 0.0174966 -0.110237
302 0.550486 3.24422 -0.313852 0.47931 1.00976 -3.08196 -0.257304 -1.55859 1.21593 -1.5797 -1.0256 -0.699262 1.05234 0.178899 0.475601 0.829694 -0.0258014 -0.719802 -0.0241984 -0.00407848
351 0.625852 3.3085 -0.255246 0.341354 1.26078 -2.75335 -0.286121 -1.60342 1.16041 -1.69281 -0.660358 -0.988299 1.05132 0.411506 0.436084 0.847919 0.00214365 -0.959185 0.266673 0.0811004
426 0.473976 3.41402 -0.145964 0.638169 1.20759 -2.90733 -0.417094 -1.60998 1.07174 -1.62911 -0.849123 -1.0578 1.2544 0.0638553 0.226029 0.93007 -0.269726 -0.956572 0.149885 0.191582
315 0.732682 3.74171 -0.438888 0.520282 1.15678 -3.10835 -0.323173 -1.53543 1.2024 -1.85728 -0.657234 -0.8316 0.889615 0.270521 0.536982 1.24837 -0.308503 -0.766639 0.128143 -0.0320989
496 0.624484 3.41293 -0.122679 0.66741 1.17431 -2.89399 -0.474459 -1.59913 1.09671 -1.77969 -0.936139 -0.790184 0.840415 0.771017 0.467053 1.09948 -0.0864399 -0.720054 -0.0411453 -0.177573
411 0.598186 3.19372 -0.0393575 0.689137 1.21879 -2.855 -0.529922 -1.4722 1.05695 -1.58864 -0.818927 -1.16118 1.09316 0.237954 0.375509 1.07084 -0.364807 -0.871901 0.000372793 0.141831
464 0.561526 3.22766 0.0566226 0.774318 1.21768 -2.93162 -0.30843 -1.52045 1.30155 -1.71967 -0.682136 -0.938978 0.862984 0.467007 0.395257 0.883703 -0.0241253 -0.73369 0.20647 -0.0777435
525 0.619171 3.35755 -0.196072 0.66349 1.00504 -2.93796 -0.365219 -1.56429 1.16151 -1.72645 -0.750067 -0.868662 0.99179 0.0027902 0.274638 0.851502 -0.0305724 -0.692181 -0.141551 -0.134574
444 0.366282 3.34328 -0.303557 0.507638 1.12666 -2.89532 -0.264489 -1.46371 1.25815 -1.53733 -0.876184 -0.767013 0.787157 0.4221 0.430322 0.811952 0.0394954 -0.785214 -0.0287853 -0.20986
136 0.597828 3.37493 -0.379779 0.475488 1.25319 -2.92069 -0.137105 -1.59399 1.10754 -1.77057 -0.841362 -0.765671 1.02625 0.134966 0.630894 0.71652 -0.0607246 -0.863806 0.0244878 -0.117266
130 0.384331 3.26391 0.00628471 0.656127 1.07781 -2.88033 0.220236 -1.69312 1.25936 -1.49456 -0.932918 -1.1212 0.889452 0.396273 0.295774 1.13919 -0.0311778 -0.757618 0.0697566 -0.180129
183 0.527873 3.24631 0.0902569 0.402573 1.39307 -2.60151 -0.0488961 -1.66369 1.10592 -1.68197 -0.918118 -0.810859 0.753424 0.328819 0.209495 0.909334 -0.141303 -0.979579 0.023981 -0.124827
169 0.522744 3.28534 -0.227669 0.546844 1.51772 -2.91963 -0.30919 -1.51675 0.946059 -1.8446 -0.7136 -0.87533 0.837635 0.458908 0.529167 1.19891 0.0248343 -0.781551 -0.404502 -0.302449
163 0.383426 3.66432 -0.224043 0.642629 1.12511 -3.01087 -0.24674 -1.70222 1.00277 -1.86296 -0.90324 -0.894201 0.874712 0.739299 0.620053 0.916431 -0.0770491 -0.836093 -0.368786 -0.256463
387 0.497283 3.48902 -0.199977 0.61557 1.15992 -2.89509 -0.397212 -1.60057 1.10196 -1.60219 -1.08713 -0.787194 0.715544 0.379174 0.538774 1.13591 -0.191642 -0.918403 -0.169367 -0.115039
35 0.24098 3.52119 -0.281151 0.671715 1.33051 -2.88323 -0.277607 -1.601 1.01043 -1.68725 -0.73572 -1.10237 0.957871 0.353091 0.365154 0.849144 -0.0464482 -0.908779 -0.551538 -0.138982
180 0.777569 3.35766 -0.184148 0.502167 1.426 -2.63802 -0.588046 -1.59345 1.17886 -1.94084 -0.739854 -1.39306 0.840929 0.0912606 0.460985 0.903328 -0.0583419 -0.785757 -0.11353 -0.0856338
75 0.843803 3.22591 -0.425514 0.308281 1.24683 -2.73316 -0.370159 -1.48366 1.06934 -1.61441 -0.930308 -0.921697 0.770617 0.212256 0.647716 0.900007 -0.0652598 -0.694024 0.148107 -0.0784504
462 0.753429 3.30591 -0.291257 0.435376 1.07121 -2.93205 -0.433961 -1.59696 1.09196 -1.57737 -0.729199 -1.08729 1.03524 0.212348 0.397108 0.78245 0.0491582 -0.778167 -0.0524651 -0.0306893
338 0.981315 3.2781 -0.125388 0.513579 0.73705 -3.1813 -0.206228 -1.56514 1.25369 -1.7283 -0.970164 -0.826828 0.939347 0.403933 0.443641 0.880948 -0.193725 -0.918344 -0.242355 0.26479
211 0.889422 3.24765 0.0997344 0.625274 0.606533 -3.14312 -0.0773276 -1.57778 1.29142 -1.73775 -0.850315 -0.924986 0.784649 0.433534 0.513436 0.880162 -0.315944 -1.1234 -0.173898 0.307882
466 0.493996 3.32407 -0.118431 0.652085 0.901143 -3.06024 -0.120836 -1.59565 1.14169 -1.74301 -0.761163 -0.97524 0.90396 0.20864 0.175869 0.838608 -0.00734657 -0.789852 0.0877651 -0.336464
412 0.703479 3.3589 -0.242315 0.525242 1.12972 -2.89221 -0.547627 -1.60151 1.21554 -1.70701 -0.778196 -0.736021 0.821109 0.163787 0.506662 0.849355 0.000244755 -0.684167 0.0206836 -0.0463482
219 0.635647 3.10147 0.0908676 0.303408 1.2875 -2.72592 -0.182083 -1.6555 1.07847 -1.69991 -0.646572 -0.861282 0.973537 0.397225 0.444947 1.28432 -0.179283 -0.858837 0.0552698 0.0484058
43 0.617405 3.15107 0.0617088 0.491711 1.28591 -2.853 -0.167756 -1.5773 1.16374 -1.80426 -0.770342 -1.04462 1.07607 0.384909 0.297073 1.23767 -0.31729 -0.893701 -0.120971 0.215459
64 0.514372 3.38677 -0.391098 0.416917 0.952905 -3.10209 -0.254035 -1.56472 1.38631 -1.57723 -0.73396 -0.939787 1.11885 0.190373 0.366077 0.736484 -0.13572 -0.827483 -0.0217717 -0.149778
0 0.718439 3.2886 -0.227028 0.572385 0.996192 -3.05409 -0.469436 -1.54613 1.24595 -1.63871 -0.741237 -1.05749 0.94829 0.129387 0.40014 0.845509 0.00411548 -0.715064 -0.164704 -0.146767
34 0.513695 3.35599 -0.014772 0.732748 0.920147 -3.06 -0.169541 -1.56415 1.16413 -1.76718 -0.857132 -0.777538 0.996057 0.292129 0.234504 0.932377 -0.232221 -0.918728 0.107367 0.0132298
195 0.430999 3.24764 -0.221432 0.214127 0.826624 -2.81462 -0.0258904 -1.59073 1.25138 -1.78956 -0.799691 -0.96289 0.729724 0.352248 0.2478 1.23491 -0.306179 -0.940869 0.0440794 -0.256907
31 0.528557 3.43233 -0.421321 0.435271 0.917784 -2.99845 -0.0682893 -1.5633 1.25711 -1.93453 -0.621589 -1.18872 0.791028 0.317628 0.172946 0.948242 -0.178729 -0.906543 0.15373 -0.382413
505 0.558915 3.22778 -0.101219 0.609431 0.919989 -2.88657 0.00612655 -1.54513 1.06812 -1.70297 -0.909812 -0.916265 0.712485 0.255102 0.371763 0.782658 -0.233589 -0.908661 0.16205 -0.281297
251 0.7682 3.35489 -0.24789 0.781098 1.25596 -3.15344 -0.0760453 -1.45085 1.17429 -1.36597 -1.08075 -0.920319 1.0581 0.348448 0.400291 1.12607 -0.214617 -0.967001 0.247542 0.220928
358 0.631412 3.27951 -0.186304 0.464316 1.25572 -3.02692 -0.208462 -1.59496 1.1235 -1.68563 -0.938118 -0.941962 1.31627 0.293676 0.46269 1.00285 -0.353548 -0.850267 -0.0316923 0.228291
77 0.64682 3.469 -0.198722 0.545844 1.25835 -2.97179 -0.313245 -1.67522 1.31649 -1.57706 -0.967311 -1.22753 0.98366 0.508099 0.445763 1.01435 -0.122788 -0.77014 -0.157241 -0.0614213
296 0.608962 3.5099 -0.304627 0.653035 1.13551 -2.97478 -0.622296 -1.55305 0.95868 -1.60387 -1.0197 -0.777413 1.06849 0.424636 0.581365 1.01623 -0.240126 -0.816823 -0.202381 -0.0484732
441 0.718319 3.50484 -0.294375 0.651499 1.19662 -2.82958 -0.488054 -1.63098 0.994538 -1.67252 -1.31317 -1.00787 0.721827 0.31193 0.769216 0.930242 -0.226596 -0.602082 0.10615 -0.233788
79 0.482489 3.3571 -0.191115 0.598233 1.15481 -2.76661 -0.288582 -1.63828 0.927047 -1.57977 -1.05119 -0.98303 0.94307 0.223861 0.581194 0.850974 -0.119403 -0.686496 0.198226 0.00383298
246 0.780105 2.95882 0.032951 0.516263 1.1201 -2.62181 -0.281024 -1.48255 1.07802 -1.6824 -1.26939 -0.987885 0.569217 0.400931 0.541878 1.05441 -0.161629 -0.836806 -0.14371 -0.184569
311 0.808241 3.26138 -0.0714253 0.38436 1.3324 -2.47458 -0.489546 -1.67036 1.08142 -1.61632 -1.28787 -0.994438 0.593114 0.238142 0.500199 1.03253 -0.345735 -0.843793 0.217398 -0.248416
114 0.76586 3.58598 -0.254621 0.601319 1.31022 -2.86407 -0.520161 -1.72572 0.854004 -1.85156 -1.45544 -1.11179 0.83328 0.231502 0.48404 1.05541 -0.0397323 -0.83119 0.486437 -0.0559352
129 0.813404 3.39253 -0.267179 0.48687 1.31192 -2.78881 -0.366839 -1.68793 1.17985 -1.62325 -1.45186 -1.28599 0.92411 0.333441 0.432904 1.17463 -0.245526 -0.791248 0.26925 -0.0719794
56 0.579593 3.28405 -0.0489534 0.744456 0.834806 -3.02639 -0.241957 -1.6086 1.10924 -1.73663 -0.790154 -1.05796 1.03476 0.222144 0.351138 0.739941 -0.269298 -0.81074 -0.0300795 -0.108898
196 0.661717 3.36486 -0.380853 0.390428 1.16531 -2.93607 -0.263587 -1.57033 1.2807 -1.66948 -0.762538 -0.688275 0.940212 0.231115 0.463056 0.739149 0.0110075 -0.818795 0.0387698 0.0106716
318 0.190581 3.61347 -0.216459 0.378553 1.25089 -2.8014 0.141692 -1.70155 1.03349 -1.82108 -0.824612 -1.12379 0.786278 0.365988 0.603711 1.06169 0.028283 -0.841995 -0.316427 -0.0195463
96 0.610843 3.44355 -0.138005 0.550038 1.0853 -2.78358 -0.0836548 -1.61057 0.779254 -1.91782 -0.976968 -0.839503 0.955555 0.374808 0.492299 0.923098 0.0489882 -1.0387 -0.152304 -0.0622795
336 0.425328 3.7862 -0.358251 0.627922 1.15699 -3.06617 -0.235689 -1.66406 0.988866 -1.77322 -0.988517 -0.937512 0.990739 0.534208 0.590048 0.980622 0.00454647 -0.937776 -0.418525 -0.0982814
473 0.456767 3.68217 -0.356646 0.671465 1.14015 -3.02724 -0.113061 -1.60281 0.986179 -1.69871 -1.03466 -0.939964 0.967785 0.453566 0.511582 0.964787 0.0242323 -0.796469 -0.0493802 0.0966593
17 0.729368 3.48 -0.237871 0.608625 1.2702 -2.89337 -0.323742 -1.62351 0.982974 -1.66345 -1.04373 -1.14565 1.04138 0.526803 0.594283 1.02976 -0.101862 -0.807549 0.301784 -0.0789332
3 0.576363 3.33955 -0.139969 0.6091 1.2049 -2.85411 -0.349509 -1.68397 1.05457 -1.67242 -1.04517 -1.08291 0.946471 0.498356 0.312766 1.03641 -0.255632 -0.673709 0.188154 -0.198744
523 0.720049 3.38176 -0.169319 0.364323 1.08159 -2.8572 -0.354051 -1.75215 1.04763 -1.72311 -1.1897 -1.12629 0.71992 0.270194 0.609781 1.02139 -0.327776 -0.773624 -0.0506175 0.0505356
398 0.749019 3.33342 -0.367774 0.358903 0.991558 -3.07407 -0.307899 -1.60468 1.30065 -1.47221 -0.803318 -1.02112 1.01585 0.182668 0.474359 0.801827 0.00288077 -0.854044 -0.237556 0.00346904
400 0.661073 3.45022 -0.382741 0.420829 1.14517 -2.99348 -0.16285 -1.65484 1.07893 -1.73042 -0.905407 -0.765984 1.16711 0.145457 0.456866 0.78453 -0.140352 -0.916906 0.0662187 -0.105074
489 0.744931 3.36328 -0.396161 0.379759 1.16738 -2.83927 -0.243103 -1.63421 1.1 -1.64162 -0.809056 -0.711713 1.03587 0.242416 0.451891 0.747569 -0.0102331 -0.775535 -0.0129504 -0.0215873
308 0.450391 3.55641 -0.351915 0.576557 0.920018 -3.00131 -0.199495 -1.56386 0.926453 -1.97184 -0.661616 -0.953322 0.880937 0.0249265 0.390121 1.00217 -0.153231 -0.772586 -0.030341 -0.0605878
132 1.34477 5.43095 -0.881517 1.27372 1.41773 -4.48632 -1.00232 -2.17282 1.35738 -3.031 -1.2461 -1.14727 1.4489 0.584733 0.810166 0.658104 -0.309371 -1.50051 0.146665 -0.301088
364 1.38622 5.18965 -0.86759 1.20647 1.34468 -4.25205 -0.982165 -2.03443 1.37531 -2.83754 -1.23639 -1.03359 1.38997 0.549961 0.787761 0.653516 -0.307391 -1.49417 0.0936581 -0.292262
273 1.30549 5.45598 -0.909658 1.20011 1.30917 -4.36277 -1.07249 -2.08285 1.47291 -2.97203 -1.27477 -1.17572 1.45437 0.486645 0.732146 0.679772 -0.124635 -1.60179 0.216876 -0.063683
88 1.22342 5.09751 -0.815867 1.03436 1.26125 -4.11783 -1.0398 -1.98806 1.30876 -2.80938 -1.23245 -1.00143 1.22243 0.571568 0.73069 0.732661 -0.11187 -1.54872 0.116305 -0.308067
465 1.36335 5.20668 -0.849775 1.09161 1.33158 -4.28649 -1.04994 -2.00797 1.31672 -2.86257 -1.25625 -1.04794 1.30612 0.553347 0.785665 0.617939 -0.24339 -1.57733 0.124357 -0.206388
286 1.41955 5.3001 -0.846701 1.21256 1.30428 -4.24566 -1.01157 -2.12391 1.35114 -2.9111 -1.27023 -1.12159 1.33532 0.515843 0.756664 0.653291 -0.247695 -1.52567 0.147127 -0.251836
299 1.38242 5.44061 -0.910382 1.28802 1.4318 -4.49568 -1.12828 -2.11231 1.41691 -3.05274 -1.31459 -1.10184 1.38039 0.548376 0.818551 0.673673 -0.258461 -1.44924 0.105737 -0.324312
348 1.34049 5.33298 -0.869441 1.20874 1.43366 -4.40618 -1.08179 -2.05998 1.31431 -2.96951 -1.28745 -1.07908 1.41024 0.534413 0.848915 0.745383 -0.195014 -1.51214 0.095078 -0.355951
237 1.35752 5.33183 -0.85207 1.20126 1.32878 -4.33495 -1.04956 -2.09138 1.43531 -2.92412 -1.28685 -1.07235 1.40096 0.535214 0.78939 0.670184 -0.291842 -1.53237 0.111541 -0.239931
403 1.17511 4.49434 -0.696314 1.00368 1.22989 -3.69991 -0.966644 -1.78622 1.11852 -2.52717 -1.26187 -0.967546 1.00282 0.541147 0.640197 0.638229 -0.254027 -1.44122 0.113313 -0.355459
362 1.11857 4.56254 -0.634256 0.964457 1.21598 -3.81306 -1.01038 -1.90059 1.15214 -2.66585 -1.2293 -1.00085 1.10149 0.596257 0.784023 0.70382 -0.250516 -1.50514 0.0805287 -0.368979
128 0.655497 2.74245 -0.292019 0.397816 0.641746 -2.25473 -0.674359 -1.26454 0.684155 -1.7732 -0.851444 -0.664325 0.698864 0.481797 0.588659 0.583543 -0.156708 -1.14704 -0.000881972 -0.431836
71 1.16343 4.74571 -0.665832 0.983818 1.19963 -3.84158 -0.97878 -1.91842 1.18035 -2.6269 -1.21341 -0.971042 1.12462 0.494633 0.579457 0.661179 -0.183664 -1.54392 0.0832374 -0.206097
529 0.692644 3.38905 -0.383528 0.697598 1.26466 -3.09139 -0.0458645 -1.49313 1.29347 -1.44708 -1.0451 -1.04689 0.910675 0.134803 0.262257 1.04977 -0.187119 -1.07013 -0.133521 -0.323497
528 0.652773 3.6354 -0.262729 0.695401 1.27551 -3.34481 -0.111122 -1.597 1.38445 -1.49761 -1.10329 -1.04585 1.01354 -0.12494 0.359022 1.17693 -0.178363 -1.14073 -0.251203 -0.0407925
533 0.596924 3.28886 -0.175648 0.557659 1.16742 -2.8898 -0.21304 -1.48127 1.35058 -1.44009 -1.03052 -1.01248 0.837454 0.0835077 0.300258 1.13299 -0.139393 -1.05749 -0.175975 -0.0553877
524 0.477393 2.80388 -0.0512268 0.359679 1.25098 -2.49604 -0.0860198 -1.51354 1.1055 -1.35874 -1.04731 -1.01758 0.67476 0.203468 0.314189 1.14815 -0.206692 -0.690005 -0.104842 -0.0901864
106 0.363993 3.33117 -0.0731514 0.5474 1.06483 -2.97904 -0.0420531 -1.59974 1.08617 -1.67844 -1.13659 -0.906948 0.814051 0.428488 0.379388 1.19071 -0.0498639 -0.84386 -0.0745649 -0.0181235
491 0.441966 3.64745 -0.215356 0.793345 1.20523 -3.02355 0.0779843 -1.65755 1.32071 -1.5187 -0.853061 -0.976211 1.05812 0.528076 0.600868 0.96461 -0.0411495 -0.705329 -0.217065 -0.0853091
76 0.43442 3.20758 0.0316733 0.778293 1.43425 -2.85682 -0.145459 -1.57553 1.03955 -1.76852 -0.852763 -0.737437 0.94845 0.700108 0.507236 1.01524 0.0781949 -0.615718 0.0660999 -0.183893
224 0.746875 3.29413 -0.0432052 0.711403 1.03052 -2.78193 -0.0371601 -1.54442 1.17121 -1.57893 -1.01131 -0.874956 0.817829 0.52606 0.29792 0.976354 -0.0102534 -0.868674 0.212073 -0.0521247
25 0.435046 3.31975 -0.0238331 0.63396 1.1969 -3.03463 -0.46617 -1.63061 1.10176 -1.51792 -0.923565 -0.906616 0.953263 0.724964 0.506081 1.19626 -0.155177 -0.807526 0.0234147 -0.0832718
439 0.353482 2.63493 0.130484 0.155045 1.04355 -2.32893 0.00686425 -1.50365 1.0782 -1.2175 -0.729853 -0.854886 0.670103 0.521428 0.342469 1.16228 -0.241538 -0.674874 -0.0389396 -0.231579
487 0.633809 3.46998 -0.27793 0.414768 1.11261 -2.965 -0.177296 -1.69804 0.945673 -1.83949 -0.932601 -0.860519 0.90059 0.470493 0.314778 1.29468 -0.317552 -0.830867 0.102809 -0.166705
454 0.334881 3.39343 -0.0850834 0.663472 1.00853 -2.95368 -0.484246 -1.66136 1.12383 -1.71676 -1.06606 -0.981452 0.868445 0.28668 0.2847 0.851463 -0.288583 -0.894937 0.250693 -0.32494
220 0.427367 3.33905 -0.110794 0.620736 1.25361 -2.85095 -0.232163 -1.57335 1.15427 -1.50599 -0.821103 -0.919178 1.17688 0.328442 0.522011 0.975927 -0.234837 -0.674935 0.401021 0.0421576
236 0.603463 3.38012 -0.266429 0.482092 1.19254 -2.96126 -0.168007 -1.60665 1.19332 -1.87425 -0.668098 -0.967302 0.896342 0.206442 0.210288 0.81402 0.0427811 -0.987347 0.0560102 -0.193629
258 0.524714 3.32604 -0.203137 0.533713 1.12382 -2.97935 -0.272856 -1.58078 1.19337 -1.73152 -0.885408 -0.677615 0.865551 0.237837 0.332837 0.787093 -0.0435302 -0.769329 0.152204 -0.229615
382 0.494333 3.33937 -0.387663 0.508017 0.886709 -3.12798 -0.297582 -1.61727 1.21147 -1.61258 -0.768708 -0.85374 1.02565 0.0239874 0.365822 0.813215 -0.0635252 -0.669014 -0.138973 -0.191084
274 0.592714 3.31911 -0.269503 0.537403 0.944943 -3.02413 -0.104581 -1.60516 1.10602 -1.71785 -0.796606 -0.945031 0.726545 0.164608 0.444926 0.821659 -0.115468 -0.732254 0.0688213 -0.402723
457 0.658715 3.22178 -0.0764791 0.671387 0.849743 -3.01067 -0.0833657 -1.54109 1.04509 -1.86011 -0.991589 -0.906258 0.726916 0.40518 0.505672 0.738231 -0.24432 -0.928344 0.0105355 -0.169004
199 0.357183 3.35489 -0.210818 0.463526 1.22306 -2.90048 -0.240953 -1.59462 0.928295 -1.70438 -0.823139 -1.21723 0.98258 0.351286 0.563439 0.858242 -0.26074 -0.914185 0.265755 -0.0746727
257 0.633635 3.57781 -0.195973 0.637505 1.08425 -2.99822 0.0737677 -1.62903 1.19131 -1.65476 -0.979433 -1.19751 0.631196 0.170265 0.464781 1.16038 -0.0359976 -1.03666 -0.3592 0.0857269
116 0.906741 3.50882 -0.215799 0.600395 1.15969 -2.79903 -0.366945 -1.79877 1.06884 -1.74825 -1.40306 -1.31763 0.914327 0.313152 0.446924 0.956275 -0.25609 -0.707355 0.16824 -0.0119873
518 0.877517 3.18871 -0.0910326 0.666018 1.29449 -2.7748 -0.338297 -1.60125 1.05977 -1.91645 -0.822443 -0.683101 1.22035 0.5189 0.143668 0.8172 0.0112056 -0.768514 -0.0704076 -0.165443
396 0.689688 3.70671 -0.292573 0.81681 1.23295 -3.12864 0.213706 -1.53889 1.28253 -1.7408 -1.03808 -0.855981 0.822233 0.223078 0.340101 1.04669 -0.263948 -1.04375 0.0118577 -0.172215
392 0.462975 3.4804 -0.16034 0.650962 1.1197 -2.86922 -0.438979 -1.62955 1.12956 -1.63933 -0.912771 -0.961873 0.852873 0.713779 0.324922 1.02351 -0.218057 -0.780655 -0.318077 -0.29581
67 0.840747 3.41181 -0.177306 0.325624 1.18212 -2.69347 -0.552392 -1.81468 1.06141 -1.74994 -1.5467 -1.35187 0.657494 0.322457 0.508667 1.196 -0.178872 -0.751335 0.316177 -0.173119
490 0.706432 3.34156 -0.220331 0.325923 1.33347 -2.66857 -0.355613 -1.73337 1.02879 -1.51095 -1.29857 -1.23778 0.892522 0.412943 0.527971 1.1332 -0.126777 -0.68336 0.294329 -0.196749
366 0.800142 3.69945 -0.321049 0.417263 1.31216 -2.79427 -0.263546 -1.84197 0.972241 -1.66983 -1.2958 -1.1036 0.823828 0.350587 0.655759 1.11342 -0.170008 -0.722281 0.260212 -0.0333108
340 0.725587 3.22912 -0.193357 0.370237 1.28446 -2.62502 -0.376005 -1.69325 1.03461 -1.55127 -1.37268 -1.24811 0.792551 0.264003 0.49371 1.19995 -0.241919 -0.712053 0.236065 -0.136933
304 0.782441 3.11629 -0.148449 0.384215 1.18459 -2.78558 -0.41963 -1.51556 1.11309 -1.75841 -1.05742 -0.672228 0.810653 0.37134 0.386581 0.961394 0.0385659 -0.851705 -0.0072134 0.15598
388 0.731513 3.16084 -0.0543798 0.250795 1.18506 -2.67018 -0.232395 -1.53573 1.27867 -1.62365 -1.02191 -0.830594 0.719971 0.0372589 0.344581 1.19353 -0.100763 -0.845498 -0.331975 0.106121
502 0.726691 3.24575 0.0457591 0.843112 1.30111 -2.83486 -0.0396414 -1.54566 1.05026 -1.71235 -0.841572 -0.666949 0.956574 0.325211 0.410063 1.01379 -0.153437 -0.688874 0.0232159 -0.15813
474 0.889048 3.64653 -0.490551 0.566457 1.2968 -3.118 -0.120143 -1.60615 0.983481 -1.91757 -0.776586 -0.847125 0.920674 0.257646 0.626602 1.17566 -0.212051 -0.824539 0.176702 -0.0570345
11 0.780829 3.4349 -0.363705 0.228888 1.33202 -2.96226 -0.339262 -1.7081 0.944807 -2.05962 -0.63023 -0.983158 0.929837 0.29613 0.545464 1.30164 -0.199878 -0.864882 -0.0184724 0.000188194
247 0.658773 3.41454 -0.376736 0.36339 1.22731 -3.10663 -0.173906 -1.56249 1.09924 -1.94365 -0.718824 -0.920189 0.995371 0.333389 0.486902 1.33307 -0.223343 -0.963598 0.00394819 -0.159044
260 0.838148 3.78963 -0.581602 0.549249 1.22206 -3.16994 -0.106363 -1.65705 1.24801 -1.79988 -0.745832 -0.970984 1.05099 0.332679 0.414591 1.16093 -0.451973 -0.964705 0.063156 -0.068897
44 0.880669 3.73794 -0.539444 0.518578 1.06853 -3.22444 -0.147468 -1.61356 1.14219 -1.87716 -0.651091 -1.01002 0.958817 0.417814 0.463635 1.20696 -0.275264 -0.849821 0.0352744 -0.106772
435 0.65463 3.10726 -0.0445923 0.600493 0.896534 -2.9895 -0.145078 -1.47911 1.22463 -1.65159 -0.942864 -0.853168 0.778591 0.128908 0.417978 0.929115 -0.263902 -0.969535 -0.165699 -0.1774
495 0.463607 3.27118 -0.0653452 0.563471 0.725593 -2.74928 0.0295092 -1.58204 1.01105 -1.70194 -1.09475 -0.905726 0.84207 0.26564 0.240558 1.01748 -0.109699 -0.942613 -0.256636 -0.0952247
432 0.3804 3.3886 -0.121985 0.454114 1.21758 -2.89232 -0.0794809 -1.68838 0.992775 -1.48765 -1.32348 -1.10369 0.775913 0.275441 0.432477 1.22957 0.160986 -0.768873 0.0374156 -0.0530695
55 0.333249 3.2207 -0.212753 0.372898 1.16514 -2.7603 0.0412092 -1.57148 0.878982 -1.43945 -1.08926 -1.04829 0.87685 0.259198 0.451876 1.06852 0.198511 -0.755778 0.0386416 -0.0443738
261 0.292835 3.6606 -0.19727 0.738386 1.14994 -3.0358 -0.251195 -1.68217 1.07894 -1.7902 -0.990647 -0.976534 0.888589 0.56661 0.470282 0.915366 -0.001265 -0.833953 -0.0975487 -0.0968638
384 0.590385 3.00648 -0.0294832 0.411027 0.989767 -2.73053 -0.107763 -1.60756 0.823856 -1.4137 -1.02715 -0.911908 0.734668 0.429379 0.44647 1.11789 -0.342619 -0.735677 -0.0387817 -0.29338
157 0.367146 3.61848 -0.285684 0.555794 1.18541 -3.0345 0.0614107 -1.63057 0.876224 -1.87841 -0.92322 -0.873645 0.948387 0.451394 0.661813 1.0111 -0.00119247 -0.925532 -0.479154 -0.115235
178 0.517355 3.55614 -0.274523 0.687894 1.1456 -2.92979 -0.307917 -1.62696 1.12673 -1.59154 -0.998845 -0.878021 0.794651 0.663522 0.677221 0.979712 -0.26592 -0.93198 -0.275592 -0.27566
8 0.470986 3.42261 -0.195749 0.518105 1.09351 -2.8895 -0.63913 -1.54319 1.17713 -1.55568 -1.07993 -0.78678 0.674594 0.52891 0.66095 1.05246 -0.226495 -0.89903 -0.382042 -0.103918
360 0.656472 3.53044 -0.265599 0.561542 1.23461 -2.95365 -0.382378 -1.65719 1.01598 -1.63672 -1.28714 -1.01519 0.941091 0.403062 0.624217 0.984029 -0.161182 -0.922137 0.353696 0.172055
450 0.437574 3.37928 -0.158222 0.558733 1.09487 -2.92055 -0.608046 -1.60031 0.96556 -1.72667 -0.865936 -0.937152 0.824573 0.717245 0.592038 1.00339 -0.0805209 -0.752437 -0.257689 -0.283564
456 0.674719 3.38952 -0.306817 0.471774 0.886936 -3.01072 -0.177338 -1.66641 1.10879 -1.71685 -0.836216 -0.9562 0.82409 0.298965 0.322313 0.816387 0.0366644 -0.76892 0.0499941 -0.296309
284 0.577388 3.33317 -0.31523 0.424482 0.940078 -2.95781 -0.284396 -1.60558 1.20999 -1.64809 -0.777222 -0.868089 0.756728 0.181519 0.348128 0.835834 -0.0930798 -0.691769 0.0428307 -0.250885
249 0.416123 3.29633 -0.258782 0.608376 1.01299 -3.12381 -0.263441 -1.49772 1.18114 -1.6022 -0.789659 -0.884033 0.99825 0.180762 0.354266 0.801784 0.0452793 -0.765737 0.0189002 -0.189169
12 0.665731 3.17373 -0.0841161 0.63748 1.42847 -2.88939 -0.167847 -1.45761 1.15368 -1.87702 -0.57898 -0.947167 0.59483 0.0413114 0.634186 0.862832 0.0414045 -0.932643 -0.3313 -0.12618
51 0.661494 3.34191 -0.296836 0.261003 1.42326 -2.91521 -0.102545 -1.64731 0.975606 -1.94782 -0.581294 -0.7889 0.861743 0.170506 0.531789 1.15424 -0.0206474 -0.967434 -0.175455 -0.157354
33 0.379245 3.57875 -0.248921 0.584951 1.0983 -2.98715 -0.0170984 -1.67877 0.712694 -1.80692 -1.20724 -1.01896 1.22231 0.25385 0.260867 0.971408 0.299721 -0.705669 0.0103132 0.0836793
321 0.687447 3.19799 -0.111885 0.595304 1.32688 -2.79346 -0.232507 -1.56037 1.05632 -1.92237 -0.713163 -0.653876 0.885786 0.140175 0.27069 0.868782 0.0636357 -0.766138 -0.136691 -0.202825
209 0.734085 3.44891 -0.214729 0.768585 1.44651 -2.9634 -0.188547 -1.49546 1.1398 -1.79816 -0.729024 -1.01366 0.806971 -0.161881 0.580001 0.947216 -0.0303814 -0.92979 -0.290514 -0.0297384
395 0.741221 3.29578 -0.0146363 0.626703 1.35416 -2.80507 -0.386314 -1.56303 1.2092 -1.90978 -0.729599 -0.913685 0.617116 -0.122762 0.492086 0.878487 0.0614844 -0.928599 -0.378146 -0.130783
113 0.671239 3.23449 -0.131195 0.621446 0.947694 -2.99253 -0.413953 -1.50189 1.12973 -1.72684 -0.788946 -0.734036 0.932617 0.054732 0.284319 0.895531 0.106296 -0.636299 -0.120338 0.0514774
271 0.7345 3.35242 -0.361655 0.422359 0.96829 -2.93171 -0.347973 -1.6451 1.25629 -1.6181 -0.799164 -0.770739 1.04799 0.121138 0.460384 0.777758 -0.0301622 -0.728268 -0.181042 0.0111032
386 0.608996 3.29598 -0.331422 0.389514 0.90269 -3.06191 -0.169537 -1.58028 1.07102 -1.6223 -0.884365 -0.774036 1.00397 0.235514 0.32969 0.79262 -0.0395162 -0.782219 -0.0271642 -0.0743041
139 0.921746 3.19317 -0.00660971 0.659328 1.35819 -2.77336 -0.601405 -1.52975 1.18595 -1.76976 -0.811273 -1.00195 0.615525 0.0798415 0.733635 0.904975 -0.206301 -0.735439 -0.163021 -0.0389388
498 0.575258 3.3591 -0.284368 0.492374 0.967798 -3.01904 -0.129257 -1.57857 1.10515 -1.71236 -0.846702 -0.885999 1.03052 0.286482 0.216525 0.775061 -0.033924 -0.852907 -0.111026 -0.116374
86 0.826302 3.32176 -0.248689 0.482827 1.33902 -2.78941 -0.0918609 -1.6518 1.14037 -1.69139 -0.720185 -0.713573 1.00553 0.252579 0.666628 0.721413 -0.16676 -0.860671 0.147932 -0.0425869
278 0.922621 3.11272 -0.0859439 0.635343 1.45819 -2.73318 -0.314933 -1.54662 1.04656 -1.71595 -0.786983 -0.78401 0.859992 0.638523 0.38824 0.946433 -0.0324383 -0.848537 -0.014083 -0.222665
475 0.650961 2.86173 0.125519 0.508293 1.35162 -2.39923 0.00576097 -1.6008 1.00218 -1.76828 -0.614754 -0.669322 0.941196 0.514871 0.266117 0.845638 -0.0374875 -0.777542 -0.0274316 -0.160217
350 0.666912 3.24626 -0.101585 0.518024 0.965527 -2.89438 -0.365261 -1.57767 0.910318 -2.00577 -0.901629 -1.13619 0.750226 0.334406 0.258809 1.01413 -0.334982 -0.989636 0.153798 -0.232565
265 0.241257 3.2799 0.0583761 0.395087 1.18699 -2.54186 -0.254621 -1.63175 1.29688 -1.67938 -0.605015 -1.23234 0.866913 0.501451 0.350028 0.985491 -0.164459 -0.86307 0.33209 0.0294156
28 0.485152 3.23331 0.00518858 0.390765 1.18899 -2.81614 -0.0331717 -1.65517 1.19895 -1.66263 -0.954985 -1.04619 1.05195 0.347451 0.521307 1.14683 -0.297614 -0.886187 -0.0924922 0.212573
49 0.358351 3.43011 0.0291912 0.529635 1.12992 -2.80098 -0.101669 -1.72835 1.07416 -1.83721 -0.753088 -0.999015 1.01984 0.401489 0.487108 1.04258 -0.310751 -1.03192 -0.266852 0.0815151
22 0.50426 3.49489 -0.121884 0.370552 1.16433 -2.91554 -0.536197 -1.67057 1.07105 -1.81841 -0.678555 -1.02243 0.983463 0.272273 0.0342318 1.17328 -0.222657 -0.891255 -0.0116762 0.0417869
59 0.576168 3.26515 -0.190087 0.5329 1.13109 -2.83579 -0.10249 -1.58081 0.930435 -1.87712 -0.850048 -0.946864 0.696598 0.176489 0.267113 0.838098 0.0594091 -0.986125 0.0292839 -0.305234
319 0.775357 3.67046 -0.542013 0.580445 1.35621 -3.30941 -0.2795 -1.55518 1.02372 -2.06127 -0.684697 -0.995472 0.884347 0.160281 0.427314 1.29686 -0.177028 -0.915334 -0.0878631 -0.10597
73 0.717839 3.63591 -0.431073 0.380573 1.18602 -3.18334 -0.196373 -1.66545 1.22873 -1.9891 -0.705974 -0.947216 0.892784 0.325626 0.476412 1.3467 -0.298347 -0.95128 0.048096 -0.128896
511 0.700377 3.90439 -0.582495 0.596729 1.10232 -3.33347 -0.169741 -1.68005 1.20167 -1.96115 -0.730746 -0.902692 1.1406 0.306173 0.290128 1.20161 -0.29626 -0.870582 0.141782 -0.191732
357 0.439897 3.17133 -0.151668 0.304596 1.3094 -2.8076 -0.220144 -1.59322 0.976546 -1.85145 -0.808615 -0.997679 0.831615 0.308541 0.550845 1.28636 -0.261784 -0.850483 -0.169747 -0.0581647
40 0.423635 3.10952 -0.0752344 0.334719 1.0484 -2.43383 -0.168613 -1.6415 0.796029 -1.61834 -1.26006 -1.09664 0.745785 0.204232 0.339257 1.02922 -0.0618259 -0.573711 0.399912 -0.0630112
342 0.501779 2.99916 0.026952 0.55022 1.42037 -2.72181 -0.0242101 -1.64727 1.3328 -1.3503 -0.687621 -1.05599 1.24073 0.74677 0.267992 1.02197 -0.136225 -0.510166 0.22157 -0.0360957
66 0.718926 3.35157 -0.36063 0.329661 1.01039 -2.97451 -0.325975 -1.58055 1.27241 -1.50258 -0.801396 -0.77215 1.14058 0.174798 0.501651 0.804963 -0.0237811 -0.651373 -0.0497482 0.00928665
140 0.719317 2.87327 -0.107524 0.306728 0.992433 -2.71054 -0.623571 -1.44976 0.979719 -1.74548 -0.962424 -0.87049 0.735423 0.413475 0.563018 0.994749 -0.179578 -0.727746 -0.116794 0.151611
470 0.554819 3.46794 -0.400657 0.324879 1.18622 -2.91484 -0.0768093 -1.61925 1.06348 -1.83627 -0.738911 -0.935292 0.871543 0.420436 0.354582 1.24656 -0.344958 -0.836687 -0.0900287 -0.290495
173 0.552744 3.38202 -0.364606 0.191218 1.26934 -2.91877 -0.247746 -1.63862 1.08154 -1.98689 -0.61784 -1.03069 0.752056 0.312723 0.373841 1.39745 -0.127888 -0.880402 -0.0953199 -0.0956682
243 0.81003 3.62756 -0.316142 0.468787 1.20118 -3.0665 -0.458429 -1.65468 1.0228 -1.943 -0.740121 -1.03434 0.757894 0.325685 0.416161 1.32357 -0.0327604 -0.876479 -0.138158 -0.0245867
421 0.853943 3.85011 -0.58754 0.497348 1.31125 -3.18105 -0.222302 -1.6431 1.1157 -2.12979 -0.740312 -0.970664 0.947068 0.273714 0.39192 1.21407 -0.184414 -0.821197 0.0372861 -0.0587947
70 0.873497 3.46094 -0.434325 0.267946 1.33305 -2.98723 -0.248561 -1.59643 0.878816 -2.05887 -0.587244 -0.963387 0.969945 0.220242 0.531944 1.14868 -0.302249 -0.961756 -0.0470175 -0.0490651
405 0.831887 3.75076 -0.475978 0.421649 1.27114 -3.07339 -0.1593 -1.68683 1.12736 -1.92059 -0.640849 -0.896648 1.00874 0.2331 0.394245 1.23522 -0.237686 -0.882205 -0.0748746 0.0139472
176 0.725125 3.4709 -0.315488 0.71612 0.912365 -3.12594 -0.247344 -1.56114 1.09684 -1.77792 -0.746827 -1.07214 1.02678 0.36265 0.208965 1.08474 -0.139515 -0.684428 -0.0420132 -0.19285
213 0.561195 3.34739 -0.400394 0.159374 1.31417 -2.85747 -0.38735 -1.66755 1.1326 -1.65911 -0.933373 -0.891139 0.942388 0.508369 0.755214 0.97653 -0.129465 -0.939706 0.144096 -0.128565
486 0.697319 3.38205 -0.170961 0.589026 1.33905 -2.86436 -0.198504 -1.62673 1.1235 -1.81422 -0.86113 -0.72208 0.949417 0.2941 0.383596 0.765899 0.0665522 -0.812801 0.172386 -0.0400073
428 0.76678 2.99435 -0.0831968 0.346919 1.1153 -2.94997 -0.404366 -1.49161 0.984765 -1.93187 -0.761885 -0.805284 0.847513 0.495094 0.421394 1.20256 0.0786374 -0.588908 -0.100371 0.152984
445 0.674102 3.37217 -0.196234 0.571942 1.30814 -2.97223 -0.6476 -1.45892 1.09487 -1.84525 -0.542628 -1.04972 0.965901 0.507168 0.342438 1.19251 -0.133741 -0.815854 -0.247833 -0.0257
170 0.577119 3.33982 -0.387393 0.479228 1.07479 -3.02671 -0.118339 -1.58489 1.23853 -1.59138 -0.879111 -0.815456 1.07475 0.10839 0.515172 0.760291 -0.0321502 -0.682535 0.146795 -0.00300848
229 1.03183 3.21144 -0.0176021 0.632376 1.42421 -2.6311 -0.194226 -1.61789 1.06984 -1.80988 -0.842453 -0.498874 1.11929 0.671215 0.216131 0.861988 -0.0858959 -0.876093 0.0858367 -0.0514767
181 0.611883 3.6707 -0.384413 0.41286 1.29626 -3.25911 -0.595299 -1.59379 1.22265 -1.90383 -0.729592 -1.04352 1.08667 0.137656 0.20874 1.40226 -0.195871 -0.859982 0.0984158 0.0602895
379 0.590575 3.51688 -0.161652 0.300472 1.18008 -2.9685 -0.39601 -1.6574 1.21084 -1.79004 -0.77487 -1.0846 0.883354 0.260968 0.158294 1.35689 -0.177454 -0.874632 -0.0143873 -0.0468009
102 0.760453 3.41863 -0.244385 0.344362 1.27351 -2.91753 -0.332907 -1.66615 1.02109 -1.88518 -0.840771 -1.16385 0.926811 0.359558 0.254957 1.24856 -0.294398 -0.902753 0.0850913 0.0299477
137 0.613058 3.71463 -0.170899 0.345592 1.13193 -2.81955 -0.222152 -1.83638 1.19645 -1.84632 -0.680506 -1.0296 1.00507 0.447811 0.0049469 1.1042 -0.366294 -0.801712 0.0863473 -0.117673
391 0.747238 3.25343 -0.070406 0.738611 1.23514 -2.83745 -0.358083 -1.46046 1.3665 -1.70467 -0.644575 -1.02349 0.632935 0.0935055 0.324668 0.851507 -0.00728914 -1.00707 -0.247603 -0.152078
283 0.974328 3.32026 -0.161677 0.685976 1.32676 -2.86413 0.0131087 -1.55548 1.04268 -1.90604 -0.712948 -0.721783 1.09589 0.381544 0.123231 1.07455 -0.209602 -0.766476 0.0189158 -0.178159
373 0.437466 2.6304 -0.029863 -0.00658786 0.987458 -2.42191 -0.203645 -1.49924 1.13363 -1.41747 -0.825229 -0.932525 0.665475 0.284339 0.312971 1.06427 -0.0174847 -0.737778 -0.102987 0.0164308
422 0.279056 3.24422 -0.217205 0.393439 1.16153 -2.92995 -0.38469 -1.56959 1.1426 -1.59675 -0.74432 -0.906635 0.962646 0.0683199 0.56143 0.982517 -0.123769 -0.640012 -0.00374407 0.0462854
276 0.984457 2.97924 0.155656 0.502618 0.596078 -3.08908 -0.290393 -1.6067 1.11905 -1.73444 -1.02374 -0.878048 0.916619 0.432789 0.493513 1.10809 -0.424334 -0.998711 -0.210791 0.273995
121 0.865428 3.21962 0.147765 0.673939 0.462347 -3.08196 -0.140119 -1.59363 1.22512 -1.78787 -0.888955 -0.935199 0.804974 0.36352 0.496289 0.77562 -0.411423 -1.02981 -0.178977 0.209246
15 0.742591 3.07775 0.187911 0.520954 0.649108 -3.00718 -0.0502731 -1.61693 1.10547 -1.82114 -0.899095 -0.999329 0.854476 0.304977 0.588677 0.861446 -0.327376 -1.09685 -0.30323 0.096815
4 0.428955 3.6573 0.0288127 0.579852 1.17952 -2.81085 -0.394057 -1.71247 1.2209 -1.85919 -0.720668 -1.4375 1.09145 0.247005 0.426171 0.899668 -0.248908 -1.0868 0.181132 0.282841
256 0.605753 3.22032 0.0223617 0.722059 1.28318 -2.82405 -0.403366 -1.47864 1.26617 -1.93168 -0.645956 -0.812947 0.583546 -0.121542 0.440968 0.875242 0.0024641 -0.941538 -0.153975 -0.0825626
354 0.765942 3.69649 -0.569154 0.461619 1.22867 -3.09491 -0.280424 -1.67097 1.15211 -1.98127 -0.535766 -1.06136 0.925017 0.26494 0.580207 1.12344 -0.37886 -0.838371 0.0492116 -0.219968
458 0.805351 3.57449 -0.491934 0.49816 1.21535 -3.06227 -0.211937 -1.57053 1.14965 -1.76437 -0.813828 -0.992168 0.986514 0.467106 0.487728 1.20658 -0.293968 -0.835175 0.103428 -0.0127464
327 0.4523 3.81268 -0.409611 0.513361 1.1515 -2.94123 -0.25571 -1.62397 1.35923 -1.86755 -0.435788 -1.13019 0.946536 0.257243 0.430234 1.10365 -0.217819 -0.854235 0.341196 0.187164
418 0.571761 3.12925 -0.10259 0.605933 1.5183 -2.88726 -0.172088 -1.53382 0.931129 -1.69592 -0.832987 -0.966067 0.838894 0.338629 0.662893 1.17287 -0.0246994 -0.786605 -0.348564 -0.246689
481 0.470533 3.08443 -0.0874486 0.371831 1.41129 -3.04257 -0.240957 -1.53175 1.07511 -1.68289 -0.646472 -1.04783 0.974137 0.19945 0.308754 1.43038 -0.157275 -0.80571 -0.112662 -0.00646059
332 0.653273 3.27406 -0.150747 0.679831 1.29425 -2.87418 -0.365733 -1.53416 1.24919 -1.78523 -0.617955 -0.94901 0.915465 0.159523 0.449976 0.818357 0.0476565 -0.788114 -0.178351 0.00849323
119 0.498584 3.31306 0.0425794 0.667237 1.16582 -2.80605 0.000796433 -1.64784 1.18393 -1.53613 -0.854769 -0.748881 1.06734 0.684821 0.648442 0.973363 -0.361985 -0.739217 0.123068 0.0449063
27 0.758466 3.30897 -0.0892667 0.603102 1.45962 -2.86786 -0.2903 -1.48096 1.21072 -1.79448 -0.682394 -0.898915 0.735197 -0.0242308 0.462641 0.860611 0.138905 -0.986814 -0.124102 -0.029218
189 0.717669 3.2524 0.0432086 0.71204 1.22117 -2.73115 -0.163424 -1.60987 1.07257 -1.85272 -0.818387 -0.821831 0.922058 0.159321 0.257767 0.745872 -0.100747 -0.939053 -0.073544 -0.127148
377 0.75491 3.64244 -0.509171 0.414816 1.02862 -3.18462 -0.161971 -1.66205 1.34287 -1.87094 -0.754769 -1.0107 0.942051 0.240722 0.226687 1.20534 -0.358886 -1.00005 0.0139749 -0.0767107
471 0.72483 3.31447 0.0557936 0.690079 0.781302 -3.00047 -0.442015 -1.61957 1.24221 -1.7915 -0.785691 -0.974003 0.765135 0.279757 0.565365 0.896668 -0.245934 -0.741066 -0.000327074 0.040955
407 0.577512 3.66719 -0.209634 0.542177 1.22117 -2.7136 -0.295824 -1.74866 1.02154 -1.66724 -0.953969 -1.32457 1.12414 0.263523 0.370719 0.969577 -0.329622 -0.962343 0.218054 -0.0182528
503 0.411251 3.39074 -0.209154 0.517225 1.15541 -2.89154 -0.291274 -1.64086 1.00323 -1.7364 -0.950007 -0.801784 0.867274 0.643442 0.575898 1.1096 -0.0516669 -0.736764 -0.390264 -0.32987
2 0.731356 3.25002 -0.164782 0.583403 1.07677 -2.82845 -0.419465 -1.5125 1.11866 -1.62569 -1.27581 -0.932067 0.643514 0.525573 0.221481 0.938295 -0.282912 -0.86369 -0.0225814 -0.292374
425 0.723813 3.25844 -0.0752473 0.633147 0.719035 -3.05863 -0.116777 -1.55687 1.20485 -1.72096 -0.925245 -0.848664 0.697497 0.417389 0.58447 0.805953 -0.163385 -0.830734 0.0935489 -0.149229
230 0.7424 3.22365 0.123249 0.713739 0.671089 -3.20633 -0.165531 -1.57747 1.1623 -1.87383 -0.937477 -0.789171 0.948753 0.270776 0.564213 0.88502 -0.304342 -0.946376 -0.123998 0.0642816
463 0.849278 3.03533 0.247099 0.490555 0.644245 -3.03655 -0.00591354 -1.63113 1.23167 -1.72121 -0.9246 -0.930428 0.722764 0.410029 0.550556 0.948923 -0.42324 -0.955103 -0.208824 0.15835
6 0.7886 3.37127 -0.137966 0.580181 1.39369 -2.74576 -0.397812 -1.60227 1.15685 -1.95384 -0.842177 -0.727073 0.693247 0.0240195 0.598275 0.843465 -0.0276367 -0.786168 -0.282069 -0.119509
24 0.790978 3.26396 -0.0846491 0.660204 1.36936 -2.73381 -0.227931 -1.54421 1.10252 -1.94718 -0.817701 -0.958848 0.720471 -0.0134111 0.425524 0.785967 0.0339204 -0.968286 -0.393832 -0.0588805
492 0.546556 3.26003 -0.0714047 0.655255 1.13269 -2.85648 -0.434265 -1.54661 1.02739 -1.77275 -0.804924 -1.03234 0.656971 0.0710802 0.0619937 0.882648 -0.0631074 -1.09783 0.092818 -0.324277
281 0.530845 3.25895 -0.225494 0.548307 1.20687 -2.86482 -0.444137 -1.55817 1.31821 -1.52682 -0.511962 -1.10728 0.846285 0.265023 0.516314 0.716146 0.118541 -0.740216 -0.0607487 -0.0614138
95 0.481447 2.50252 0.0776011 0.0412141 1.25582 -2.25753 -0.240416 -1.41061 0.993684 -1.36751 -0.801227 -0.736034 0.53699 0.384981 0.360267 1.21791 -0.144657 -0.596375 -0.120607 0.074139
52 0.778076 3.62733 -0.312426 0.516948 1.25413 -3.09189 -0.28104 -1.62478 1.0323 -2.01041 -0.785674 -0.978618 0.817193 0.41898 0.506971 1.25105 -0.228384 -0.927715 0.151054 -0.217164
365 0.443952 3.5147 -0.233294 0.659343 1.28099 -2.93395 -0.45748 -1.59033 1.04739 -1.77912 -0.867911 -0.827403 0.992063 0.74574 0.497383 1.06882 -0.256269 -0.799293 -0.332181 -0.143835
328 0.652255 3.46771 -0.0535663 0.599002 1.308 -2.95921 -0.398782 -1.63378 1.13214 -1.81483 -0.700254 -1.29496 1.1775 0.179558 0.409706 1.10163 -0.238865 -0.980299 0.0563064 0.297623
203 0.727136 3.64407 -0.422911 0.493472 1.26704 -3.26342 -0.377617 -1.56582 1.13172 -2.01996 -0.610226 -1.26478 0.759534 0.189095 0.393773 1.2228 -0.19341 -0.989863 0.0111115 0.11981
312 0.650083 2.92009 -0.145787 0.179962 1.11956 -2.39287 -0.229382 -1.50534 0.984977 -1.53417 -0.727475 -1.0156 0.550809 0.137618 0.139216 1.25923 -0.249311 -0.85758 -0.0486946 -0.093552
467 0.814734 3.55675 -0.528448 0.415371 1.17018 -3.15733 -0.304778 -1.53994 1.07425 -1.85916 -0.691485 -0.978257 1.02162 0.253448 0.385834 1.30897 -0.32947 -0.9286 0.0175645 -0.0507524
160 0.707377 2.94218 -0.132754 0.354999 1.12219 -2.99951 -0.3048 -1.50599 1.28162 -1.55035 -1.12915 -0.863454 0.906497 0.185199 0.393123 1.21846 -0.480858 -0.9214 -0.207728 0.0296585
205 0.915189 3.34866 -0.120646 0.577603 1.30654 -2.69006 -0.278597 -1.6 1.2057 -1.52054 -1.13806 -0.597602 0.841549 0.20336 0.456901 0.976892 -0.181048 -0.859726 0.158269 0.0370868
165 0.555185 3.553 -0.292547 0.410773 1.16977 -3.02827 -0.344606 -1.64848 1.08921 -1.76664 -0.710494 -1.1681 0.953035 0.250638 0.173164 1.15394 -0.229747 -0.953751 -0.0140801 0.0595228
279 0.771707 2.94046 -0.05774 0.310754 1.36497 -2.33173 -0.247 -1.60978 0.943672 -1.84483 -0.809461 -0.677953 0.877251 0.534761 0.412702 0.866633 0.104085 -0.673803 0.00234218 -0.16726
369 0.444405 3.33553 -0.121301 0.605372 1.03957 -2.91248 -0.279573 -1.61509 1.13575 -1.789 -0.836449 -0.907882 0.802562 0.224385 0.382536 0.76951 -0.319729 -0.955987 0.289236 -0.407042
402 0.414139 2.48614 -0.0897598 0.112493 1.01624 -2.12508 -0.169313 -1.36444 0.943255 -1.19568 -0.814312 -0.713329 0.838062 0.234237 0.395778 0.930328 0.0608603 -0.837103 0.0367843 -0.154077
235 0.293754 3.22442 -0.179641 0.413338 1.22911 -2.82823 -0.181503 -1.65351 0.996927 -1.54157 -1.1488 -1.07977 1.02843 0.289579 0.444409 1.10749 0.0511412 -0.853908 -0.109807 0.092809
112 0.449878 3.36746 -0.24461 0.50335 1.25754 -2.83169 -0.128032 -1.66281 0.90455 -1.65347 -0.855053 -1.28578 1.15331 0.167367 0.395076 0.868389 0.044682 -0.876253 0.0262185 0.0810322
408 0.53159 3.20248 0.16919 0.537352 1.19105 -2.85434 -0.179508 -1.65529 1.09904 -1.72417 -0.964541 -1.25611 0.854549 0.366815 0.346449 1.07581 -0.0734857 -0.830654 0.0162875 0.0292943
313 0.534677 3.12004 -0.0526716 0.651546 1.07935 -3.03305 -0.0607139 -1.43381 0.906495 -1.97996 -0.774914 -0.983541 0.670398 -0.0447148 0.332726 0.873252 -0.0823163 -0.968844 -0.0998915 -0.317514
347 0.70266 3.24293 -0.127648 0.38916 1.31932 -2.70532 -0.311644 -1.63906 1.02191 -1.81131 -0.785133 -0.601442 0.891201 0.581618 0.292613 0.885039 0.0712099 -0.789825 -0.309816 -0.202339
45 0.66138 3.64817 -0.421763 0.65834 1.11727 -3.03435 -0.233923 -1.49309 1.14081 -1.66167 -0.743956 -0.979128 0.901298 0.407815 0.472865 1.13946 -0.0197278 -0.698499 -0.0993387 0.010513
393 0.831239 3.2 0.0840753 0.540281 0.845498 -2.91229 -0.0945425 -1.58546 1.14632 -1.79863 -0.896347 -0.893775 0.642507 0.222107 0.454424 0.832038 -0.125881 -1.10083 0.195854 0.0548478
5 0.410015 2.81609 0.00972598 0.150051 1.07372 -2.62688 -0.183711 -1.48581 1.24441 -1.46753 -0.857056 -0.890988 0.575516 0.282041 0.0272416 1.50722 -0.162465 -0.764734 -0.0360894 -0.228564
255 0.835726 3.85122 -0.53781 0.668283 1.25328 -3.29292 -0.0470289 -1.5855 1.33305 -1.83256 -0.722265 -1.01474 0.937234 0.33621 0.333482 1.15424 -0.255612 -1.02418 0.191884 -0.031215
381 0.513766 3.42593 -0.0339512 0.306069 1.07139 -2.71609 -0.437085 -1.73751 1.03345 -1.72948 -0.612327 -1.10552 0.858705 0.436812 0.171054 1.16721 -0.384441 -0.927517 -0.138376 -0.0409416
21 0.657411 3.56836 -0.0525308 0.413473 1.13073 -2.76708 -0.621874 -1.76253 1.26465 -1.65326 -0.843113 -1.24296 1.00622 0.306871 0.152193 1.20289 -0.479434 -0.975201 0.0708956 0.0270487
82 0.783739 3.11891 -0.249165 0.354477 0.989763 -2.61528 -0.802995 -1.40776 0.934966 -1.8877 -0.987914 -0.70088 0.764515 0.749307 0.46974 0.714555 -0.290479 -1.20531 -0.255656 -0.17116
374 0.319034 3.60937 -0.319263 0.514077 1.24348 -2.98665 0.00393486 -1.67257 1.02864 -1.69443 -0.932098 -1.00559 0.792266 0.450355 0.711863 1.00896 -0.0564936 -0.957133 -0.513717 -0.0908284
508 0.674388 3.13131 -0.0361484 0.422942 1.0507 -2.69393 -0.20998 -1.55695 1.20986 -1.34815 -1.07679 -0.829053 0.846912 0.338222 0.356139 1.08935 -0.143377 -1.02458 -0.235009 0.0721147
97 0.674347 3.54659 -0.373863 0.610953 1.23589 -2.97557 -0.121943 -1.5438 1.29609 -1.61831 -1.00003 -1.10691 1.04148 0.433099 0.306144 1.05389 -0.23278 -1.04337 -0.0873079 0.0304769
186 0.238188 1.72595 0.265351 0.0584777 0.830439 -1.66677 -0.0459249 -1.10411 0.886227 -0.830776 -0.849644 -0.727594 0.474312 0.208716 0.0919923 1.03013 -0.194921 -0.512205 -0.151614 -0.12949
9 0.705242 3.27928 -0.298864 0.518244 1.33174 -2.96294 -0.237985 -1.44091 1.44554 -1.42771 -0.940475 -0.98261 1.04818 0.265276 0.339807 1.1735 -0.299645 -1.10667 -0.0325824 -0.245892
217 0.698778 3.77225 -0.480908 0.772202 1.3686 -3.18421 -0.0788914 -1.61345 1.49531 -1.55989 -0.913555 -1.06125 1.15445 0.265237 0.499969 0.964906 -0.433547 -1.10762 -0.154011 -0.132508
200 0.816186 3.6444 -0.371515 0.783832 1.45547 -3.30551 -0.1057 -1.59549 1.48474 -1.52617 -1.15538 -1.10199 1.38388 0.323638 0.501352 1.15914 -0.283747 -1.25267 0.0646187 -0.247797
164 0.716777 3.5902 -0.382043 0.872126 1.46182 -3.33535 -0.132616 -1.56854 1.48366 -1.5466 -1.10561 -1.10164 1.29994 0.363413 0.394823 1.05207 -0.348364 -1.24416 -0.0022185 -0.343689
174 0.937567 4.21894 -0.598255 1.13336 1.59211 -3.76206 -0.202295 -1.66965 1.61449 -1.68936 -1.1298 -1.21906 1.49698 0.300287 0.514502 1.08182 -0.375518 -1.3133 0.0518366 -0.350754
289 0.709906 3.61729 -0.330919 0.758887 1.45004 -3.11868 -0.203452 -1.59493 1.31658 -1.49549 -1.26496 -1.09504 1.2021 0.267987 0.42668 1.04023 -0.176642 -1.21415 0.0561349 -0.442314
166 0.825574 3.42089 -0.200174 0.900975 1.38213 -3.06953 -0.0925966 -1.47251 1.45481 -1.45947 -1.06629 -1.0247 1.35791 0.3301 0.320584 1.06996 -0.344057 -1.20144 0.0671299 -0.269454
202 0.856068 3.7754 -0.393131 0.848188 1.29663 -3.34008 -0.346023 -1.53632 1.32177 -1.66824 -1.22083 -1.08574 1.07969 0.395821 0.367648 1.08514 -0.328726 -1.17722 -0.123794 -0.336376
161 0.371021 3.53291 -0.297427 0.461343 1.1422 -2.83056 -0.0251872 -1.67111 1.02545 -1.64303 -1.14048 -1.07519 0.818799 0.422632 0.469663 0.980483 0.240291 -0.954018 -0.306718 -0.0251654
484 0.317559 3.46968 -0.224406 0.495835 1.13823 -2.82013 -0.0972377 -1.62576 1.06906 -1.59958 -1.05944 -1.00532 0.767299 0.421648 0.504604 0.986231 0.131585 -0.920486 -0.372712 -0.041919
451 0.373431 3.4767 -0.231365 0.525985 1.1864 -2.89078 -0.0393819 -1.69602 1.05118 -1.64925 -1.15026 -1.01688 0.71341 0.399982 0.349364 1.06672 0.200304 -0.900421 -0.373975 -0.130426
409 0.568823 3.45442 -0.427574 0.394825 0.997878 -2.93963 -0.266746 -1.66467 1.23277 -1.61209 -0.794568 -0.793346 0.983669 0.202206 0.45335 0.72039 -0.144719 -0.819179 0.105767 -0.06213
500 0.288129 3.29424 -0.182182 0.354112 1.1047 -2.72938 -0.0209848 -1.62106 1.01862 -1.61353 -1.03116 -0.88047 0.675731 0.430624 0.393705 1.00717 0.105589 -0.827934 -0.489188 -0.076798
520 0.356635 3.50967 -0.206229 0.450944 1.06914 -2.8026 -0.166037 -1.69751 0.951755 -1.58542 -1.18994 -0.949247 0.774093 0.37929 0.40793 1.00455 0.230523 -0.903856 -0.382276 -0.0487921
521 0.332424 3.49498 -0.221821 0.514187 1.13854 -2.89686 -0.0401166 -1.68434 1.04903 -1.63566 -1.12694 -0.990068 0.653908 0.442662 0.535779 1.02139 0.131811 -0.993955 -0.38185 -0.009431
267 0.620476 3.41623 -0.217922 0.479088 1.12268 -2.82717 -0.182441 -1.57525 1.24708 -1.49827 -0.910827 -1.05502 0.924171 0.431219 0.488705 1.027 -0.300204 -1.01867 0.267573 0.145929
375 0.599605 3.37819 -0.398417 0.432631 1.00915 -3.11971 -0.169252 -1.57755 1.19767 -1.62955 -0.874662 -0.808055 0.999709 0.240623 0.399138 0.72015 -0.0337421 -0.830409 -0.0266453 -0.230426
111 0.36709 3.49008 -0.111373 0.496062 1.04588 -2.68321 -0.0130515 -1.75717 0.964375 -1.49079 -1.20448 -1.15059 0.926591 0.24043 0.334759 0.991587 0.0670462 -0.905181 0.028439 0.0795383
232 0.963624 3.21673 0.0696177 0.771148 0.697198 -3.20157 -0.317697 -1.63254 1.05739 -1.75809 -1.01902 -0.959616 0.827887 0.284403 0.369984 0.930448 -0.175527 -0.816871 -0.172469 0.0140033
94 0.424237 2.113 0.0992932 0.155519 0.977019 -1.95507 -0.171429 -1.18918 0.877548 -1.14278 -0.809109 -0.74342 0.599519 0.141461 0.187729 1.04422 -0.0898606 -0.7203 -0.0797843 -0.192023
285 0.452523 2.55791 0.0706639 0.366394 1.14691 -2.32136 -0.112006 -1.39343 1.03864 -1.3412 -0.933623 -0.875774 0.689937 0.305918 0.249825 1.10721 -0.190837 -0.806779 -0.0478763 -0.172485
93 0.724359 3.26144 -0.16831 0.700732 1.32049 -2.99639 -0.1166 -1.50454 1.34832 -1.45485 -1.11528 -1.00314 1.06074 0.253346 0.376298 1.14904 -0.226227 -1.12423 -0.0306959 -0.383912
210 0.768774 3.54138 -0.366402 0.765563 1.40998 -3.23511 -0.0609769 -1.5524 1.43708 -1.46493 -1.10595 -1.12717 1.34226 0.32705 0.411732 1.13041 -0.279424 -1.19122 0.051314 -0.20231
192 0.884392 4.07216 -0.519767 1.06948 1.59851 -3.62903 -0.104957 -1.62157 1.66591 -1.65775 -1.15826 -1.21084 1.51229 0.330353 0.487002 1.03809 -0.337608 -1.35861 0.0115982 -0.336936
98 0.113616 3.16483 -0.247315 0.305316 1.23068 -2.73452 -0.0288631 -1.54885 1.00832 -1.57729 -0.904604 -0.873958 0.744439 0.443037 0.621182 1.15692 0.177381 -0.787642 -0.441458 -0.0943766
30 0.602033 3.11246 -0.170318 0.448036 0.874791 -2.93744 -0.39066 -1.51135 1.07217 -1.72932 -0.704295 -0.964712 0.935714 0.418161 0.447822 0.77325 -0.172843 -0.836377 -0.222336 -0.124515
158 0.778118 3.19356 -0.166082 0.574594 1.10694 -2.98332 -0.26956 -1.57799 1.0021 -1.76565 -0.993736 -0.924258 0.883531 0.625739 0.339984 1.1167 -0.27479 -0.73287 -0.0577868 -0.279958
453 0.561914 3.41577 -0.1122 0.679787 1.20824 -2.96718 -0.219504 -1.55401 1.14876 -1.66736 -0.793965 -0.973948 0.994288 0.533372 0.49686 1.10189 -0.194582 -0.913056 -0.0219716 -0.03499
429 0.396775 3.24193 -0.0450661 0.426653 1.29085 -2.95253 -0.0986152 -1.57046 1.14701 -1.68527 -0.697581 -1.24831 1.11038 0.483541 0.659545 1.19622 -0.209083 -0.839076 -0.0299007 0.131378
482 0.43835 3.37597 -0.107747 0.441599 1.35355 -3.02189 -0.305184 -1.66985 1.27929 -1.75001 -0.963981 -1.34675 1.15806 0.315586 0.446091 1.28108 -0.392122 -0.953189 -0.0202104 0.175012
172 0.381678 2.78381 0.0661744 0.241882 0.894283 -2.58702 -0.171457 -1.53703 0.890122 -1.46325 -0.966698 -0.785891 0.648028 0.479717 0.226764 1.27304 -0.31021 -0.671245 -0.294352 -0.237422
410 0.723264 3.70175 -0.326997 0.744186 1.2327 -3.14205 -0.322663 -1.603 1.30151 -1.49026 -1.08484 -1.00339 1.08555 -0.0290087 0.204039 1.12748 -0.240519 -1.25752 -0.26384 -0.17822
206 0.0611073 1.2334 0.111258 -0.0924157 0.536838 -1.16551 -0.086422 -0.9717 0.583182 -0.590223 -0.499509 -0.514525 0.41215 0.133962 0.0907099 0.806293 0.0339029 -0.459679 -0.0281573 -0.152868
48 0.827647 3.54707 -0.120297 0.60702 1.39138 -2.89333 -0.133319 -1.60597 1.06366 -1.64956 -1.24551 -0.763693 1.02905 0.0197184 0.202861 1.19231 -0.147564 -0.913136 0.384091 0.186331
110 0.662944 3.33557 -0.343012 0.321775 0.982798 -2.93078 0.0357719 -1.56805 1.11934 -1.8416 -0.631443 -0.902609 0.585734 0.332312 0.399306 1.23568 -0.143443 -0.807798 -0.00326887 -0.132078
343 0.746392 3.06112 0.250471 0.455111 0.633281 -2.93542 -0.124953 -1.59734 1.20412 -1.80657 -0.940864 -0.9107 0.654514 0.235361 0.395819 0.911036 -0.315389 -1.10376 -0.152942 0.251959
54 0.259965 3.41584 -0.0757401 0.449603 1.32064 -2.75892 -0.056032 -1.64803 1.11441 -1.52355 -1.04591 -0.946509 0.905698 0.440916 0.498375 1.07632 -0.00433774 -0.833313 -0.238416 0.0410605
148 0.901208 3.27482 -0.206771 0.546652 1.33241 -2.82124 -0.362959 -1.52275 1.16699 -1.78637 -0.8052 -0.826048 0.734929 0.167764 0.507321 0.83949 0.0261171 -0.788937 -0.183487 -0.0583659
240 0.877611 3.03679 0.194954 0.563388 0.493503 -3.10302 -0.0933506 -1.56314 1.22587 -1.73509 -0.932789 -0.867065 0.748667 0.423262 0.55106 0.915965 -0.37488 -1.08932 -0.235501 0.110498
493 0.655001 2.94705 -0.0770657 0.26973 1.1197 -2.32268 -0.284073 -1.62904 1.04486 -1.44255 -1.35811 -1.07428 0.529383 0.25983 0.39394 1.15779 -0.175133 -0.591781 0.171326 -0.189389
478 0.518741 2.66853 -0.131883 0.0262536 0.925484 -2.35493 -0.0941884 -1.52855 0.928788 -1.58194 -0.714055 -0.711629 0.627732 0.376617 0.164469 1.3263 -0.20807 -0.672559 -0.155924 -0.210915
190 0.503435 3.35355 -0.244702 0.417925 1.11163 -2.99072 -0.0201344 -1.52413 1.41844 -1.4682 -0.964915 -0.964867 0.982486 0.170626 0.494991 1.092 -0.149906 -0.886292 -0.338687 0.0160308
107 0.585059 3.10232 -0.0322117 0.478185 1.28277 -2.75567 -0.166064 -1.48903 1.17263 -1.43537 -0.985792 -0.927807 0.903244 0.111182 0.338683 1.16565 -0.203825 -1.0731 -0.2517 -0.0404639
87 0.588553 3.40791 -0.0858559 0.670671 1.42757 -2.83439 -0.144128 -1.65139 1.13527 -1.98511 -0.697408 -1.01534 0.557252 -0.181207 0.43613 0.801579 0.0736962 -0.912015 -0.242794 -0.0785249
479 0.653837 3.52139 -0.497867 0.290744 0.982495 -3.10721 -0.225532 -1.58992 1.19858 -1.81441 -0.845227 -0.98023 0.901149 0.232013 0.324939 1.38468 -0.246408 -0.918835 0.0434787 -0.220965
455 0.625163 3.2783 -0.0667049 0.403482 1.46905 -2.77291 -0.377197 -1.58575 1.21258 -1.63791 -1.01269 -0.922572 0.813231 0.196048 0.316854 1.34273 -0.227209 -0.842802 -0.196536 0.106261
317 0.610628 2.94181 0.00511338 0.319179 1.32743 -2.54063 -0.173512 -1.43312 1.15753 -1.42705 -1.05185 -0.852394 0.787709 0.0259597 0.332526 1.21833 -0.126819 -0.98413 -0.18977 -0.0848427
242 0.652456 3.50409 -0.228759 0.546429 1.16433 -2.90748 0.0200653 -1.47048 1.18688 -1.61806 -0.940312 -0.920257 0.582805 -0.0606816 0.288445 1.19234 -0.0147157 -0.992202 -0.378661 -0.148131
134 0.408734 3.82043 -0.349538 0.752269 1.21137 -3.10452 0.0452132 -1.59759 0.997541 -1.75657 -1.14166 -0.869383 1.00297 0.1447 0.536936 1.08896 0.0346917 -0.883473 -0.246747 0.0300787
201 0.271094 1.95168 0.22862 0.150179 0.871417 -1.84701 -0.0780239 -1.20066 0.625571 -1.10375 -0.788881 -0.707945 0.432595 0.268966 0.215384 0.943599 -0.167431 -0.634762 0.0386955 -0.261555
182 0.56037 3.30445 -0.164951 0.409196 1.36126 -2.911 -0.425826 -1.55018 1.10676 -1.73885 -0.928659 -1.13057 0.655503 0.169453 0.469145 1.25819 -0.0708359 -0.899425 -0.236096 -0.0756979
20 0.623067 3.49577 -0.467443 0.696236 1.29611 -3.2702 -0.0855153 -1.44034 1.49476 -1.33607 -0.963917 -1.07099 1.00194 0.0660717 0.334045 1.0941 -0.086229 -1.0067 -0.12782 -0.270344
353 0.59361 3.31229 -0.305709 0.555195 0.91135 -2.99028 -0.16256 -1.64308 1.02156 -1.57846 -0.843054 -0.756417 1.11091 0.125862 0.456882 0.766969 -0.125768 -0.565407 0.0155203 -0.230613
233 0.525367 3.17407 0.0577434 0.494186 1.32102 -2.92749 -0.288799 -1.64403 1.19792 -1.77947 -0.916182 -1.21028 1.07546 0.337346 0.550072 1.1643 -0.334292 -0.892093 -0.0951896 0.117228
345 0.709219 2.90625 0.0536353 0.458115 0.896465 -2.7733 -0.590135 -1.51984 0.910948 -1.99893 -0.963324 -0.939407 0.636429 0.720732 0.563727 0.700844 -0.350464 -1.14653 0.107608 -0.607754
184 0.634083 3.25002 -0.125471 0.537592 1.28078 -2.69568 -0.216804 -1.47457 1.37016 -1.39511 -1.02958 -1.04648 0.770561 -0.0689917 0.2049 1.27879 -0.256294 -1.10164 -0.108266 -0.0230311
65 0.610258 3.40399 -0.116396 0.689334 1.24712 -2.88661 0.225961 -1.57446 1.33227 -1.64941 -0.844546 -0.851718 1.09652 0.52691 0.142927 1.15953 -0.206233 -0.930916 0.138917 -0.207662
85 0.463361 3.29704 -0.0147021 0.662581 1.16387 -3.14997 -0.170509 -1.54297 1.19986 -1.75467 -0.922953 -1.05238 1.28481 0.255634 0.472944 1.1283 -0.268018 -1.04399 -0.136272 0.330487
147 0.745075 3.12858 -0.240359 0.322896 1.14253 -2.46266 -0.422546 -1.65396 1.0378 -1.58932 -1.25731 -1.09974 0.526722 0.196583 0.340811 1.06332 -0.178617 -0.691062 0.224196 -0.150551
62 0.598814 3.40196 -0.0753374 0.484061 1.33316 -2.84754 -0.444491 -1.70627 0.923527 -1.62353 -1.22907 -1.03563 1.06816 0.316155 0.441375 1.11803 -0.104436 -0.825033 0.37279 0.043258
144 0.464382 3.4245 -0.0475281 0.660303 1.29029 -2.92292 -0.00400523 -1.48719 1.38907 -1.31989 -0.806196 -0.992469 0.820597 0.0575543 0.373642 1.05269 -0.160623 -1.14735 -0.273951 0.113957
530 0.722796 3.53947 -0.210149 0.696886 1.33154 -3.20267 -0.166164 -1.53862 1.4182 -1.56248 -1.07208 -1.06685 0.925332 0.0434418 0.239744 1.14544 -0.135566 -1.24174 -0.248417 -0.0367222
526 0.739036 3.47702 -0.160932 0.638841 1.31034 -2.95679 -0.32153 -1.52552 1.24569 -1.72006 -1.09942 -1.04775 0.861792 -0.171076 0.293868 1.15263 -0.128834 -1.08362 -0.333945 -0.188926
527 0.823324 3.72083 -0.349609 0.869288 1.36564 -3.2154 -0.311406 -1.54526 1.28004 -1.9153 -1.01462 -1.11368 0.950428 -0.146676 0.281959 1.11027 -0.0748142 -1.10944 -0.172572 -0.112898
151 0.624222 3.23051 -0.368075 0.19126 1.07645 -2.85347 -0.244911 -1.51107 1.07942 -1.85692 -0.691952 -0.835791 0.79372 0.31457 0.317271 1.2638 -0.211307 -0.816048 0.0046946 -0.0790178
10 0.587972 3.19677 -0.0291694 0.555345 1.32137 -2.89875 -0.124566 -1.54917 1.26217 -1.43296 -1.01123 -1.04492 0.798473 0.0496769 0.241234 1.34959 -0.143929 -1.20281 -0.258074 -0.186805
61 0.741324 3.36207 -0.20192 0.516035 1.33996 -2.93067 -0.136753 -1.61064 1.36251 -1.53913 -1.18064 -1.07208 0.87684 0.0447859 0.229334 1.23689 -0.149232 -1.09821 -0.109398 -0.0920733
460 0.420478 3.20052 0.0543467 0.570707 1.10519 -2.80307 -0.282766 -1.62457 1.12157 -1.53815 -0.982914 -1.19208 1.05168 0.306248 0.248207 1.17125 -0.137831 -0.809135 0.11312 0.00265317
123 0.764243 3.27263 -0.173625 0.26357 1.22792 -2.81334 -0.224608 -1.69289 1.00937 -1.68497 -0.927975 -1.10715 0.99875 0.220663 0.487432 1.08743 -0.189815 -0.849797 0.0605415 0.265704
532 0.586722 3.4015 -0.109126 0.54584 1.29621 -2.95239 -0.0997031 -1.59491 1.26403 -1.38168 -1.01345 -1.00604 0.844243 0.0734346 0.319712 1.24168 -0.18159 -1.19086 -0.402358 -0.122502
63 0.68104 3.55077 -0.430197 0.711901 1.37053 -3.33268 -0.235916 -1.44052 1.48096 -1.55355 -1.1437 -1.04173 0.974757 0.0157402 0.292526 1.17515 -0.127229 -1.11578 -0.30104 -0.1336
472 0.731483 3.3315 -0.281531 0.645092 1.20632 -3.10619 -0.251914 -1.4825 1.22494 -1.37487 -0.97046 -0.999357 0.887175 0.0617797 0.33379 1.18142 -0.442499 -1.16109 -0.111246 -0.249885
515 0.711586 3.34695 -0.414312 0.305237 1.10017 -2.89185 -0.291718 -1.59165 1.32514 -1.42024 -0.797472 -0.816595 1.00481 0.451136 0.530632 0.780209 -0.0198047 -0.798164 -0.0295934 -0.0918582
223 0.269821 3.70524 -0.260183 0.551204 1.18979 -3.01645 0.089511 -1.67499 1.04122 -1.6931 -0.926229 -0.981394 0.898772 0.446217 0.651318 1.06121 -0.0386305 -0.982614 -0.466934 -0.0712854
399 0.52397 3.11979 -0.106544 0.418948 1.14203 -2.73546 -0.0148467 -1.47391 1.14355 -1.59677 -0.962381 -0.961798 0.639981 0.0667706 0.135981 1.39459 -0.106316 -0.977643 -0.239833 -0.17924
499 0.561634 3.02518 -0.000336903 0.43183 1.15712 -2.64034 -0.110633 -1.53969 1.12461 -1.47557 -0.921802 -0.995897 0.629123 0.0450453 0.286943 1.27821 0.00681181 -0.981444 -0.303028 -0.283694
380 0.723075 3.41333 -0.0539508 0.637183 1.27774 -3.03758 -0.223276 -1.51015 1.14385 -1.65801 -0.940442 -0.979695 0.93757 -0.0594177 0.141257 1.2782 -0.135293 -1.28665 -0.329816 -0.0278549
440 0.63264 3.12562 -0.0483781 0.321869 1.30226 -2.74496 -0.509209 -1.6567 0.997364 -1.5552 -1.30931 -1.03739 0.788304 0.436608 0.644966 1.26379 -0.0881568 -0.884787 0.162061 -0.15586
469 0.116767 3.11933 -0.0738896 0.449922 1.32321 -2.6694 -0.117745 -1.52726 0.876996 -1.71966 -0.791992 -0.824752 0.810577 0.48408 0.465662 1.07426 0.171484 -0.632842 -0.434694 -0.12148
294 0.603019 3.07124 -0.106085 0.262209 1.30898 -2.60963 -0.0160925 -1.53699 0.968191 -1.7131 -0.619965 -0.782333 0.81605 0.401497 0.353175 1.30967 -0.130725 -0.749905 -0.1787 -0.0585282
322 0.660196 3.3807 -0.363218 0.371556 1.10467 -2.87781 -0.351951 -1.59744 0.941212 -1.62905 -1.1046 -0.94225 0.869686 0.473144 0.508257 1.12099 -0.097686 -0.606581 -0.145884 -0.136123
212 0.62696 2.96883 0.262019 0.393703 1.22399 -2.56605 0.0288278 -1.77506 0.930455 -1.57787 -0.92351 -0.859448 0.865869 0.461657 0.320796 1.1385 -0.221551 -0.846312 -0.0490543 -0.090511
337 0.509765 2.91051 -0.0769292 0.431333 1.27616 -2.61008 -0.0793762 -1.39353 1.16814 -1.33263 -0.948455 -0.961843 0.715434 0.0646817 0.264679 1.12213 -0.165664 -0.980413 -0.172981 -0.0856806
92 0.637992 2.77886 -0.19693 0.173141 1.27909 -2.30177 -0.290173 -1.60813 1.11717 -1.38439 -1.10044 -0.920539 0.536079 0.35963 0.203549 1.04836 -0.180903 -0.652183 0.370093 -0.422827
193 0.709713 3.28245 -0.0987196 0.722058 1.28182 -2.75595 0.147305 -1.72885 1.49547 -1.42476 -0.868992 -0.792293 0.846855 0.662819 0.10375 1.0933 -0.0713484 -0.54422 0.285291 -0.524717
297 0.564991 3.27565 0.0132202 0.530079 1.1843 -3.05729 -0.105625 -1.64536 1.1476 -1.79651 -0.763129 -1.20581 1.08669 0.300322 0.577581 1.14321 -0.292335 -0.868555 -0.173493 0.355492
23 0.778822 3.2034 -0.214308 0.465171 1.13725 -2.76781 -0.460525 -1.45252 0.962095 -1.79115 -1.2187 -0.926763 0.725747 0.296926 0.542689 1.0954 -0.184167 -1.00446 -0.150317 0.0639553
100 0.624984 3.19882 -0.0126099 0.604834 1.21972 -2.78791 -0.319384 -1.54054 1.05769 -1.78753 -0.931136 -0.95951 0.88194 0.342672 0.312586 1.0114 -0.142296 -0.976362 -0.156012 -0.0550667
58 0.483633 2.8161 -0.0899219 0.177009 1.02207 -2.25268 -0.27276 -1.44288 1.11693 -1.38138 -0.991957 -0.810657 0.672068 0.100838 0.237302 1.16155 -0.0332161 -0.747973 -0.0374793 0.0865867
488 0.354517 3.29742 0.0159534 0.35705 1.05939 -2.66985 -0.376698 -1.69128 1.03204 -1.82536 -0.871479 -1.40555 0.95292 0.248206 0.261509 1.0379 -0.0738154 -1.12756 0.395061 0.189849
309 0.738236 3.4806 -0.251164 0.802562 1.29035 -3.11747 -0.0995227 -1.54496 1.37763 -1.41893 -1.08078 -1.11447 1.26816 0.25659 0.441332 1.03171 -0.364942 -1.18338 0.0607941 -0.207566
476 0.760252 3.28265 -0.26227 0.754647 1.29658 -3.03875 -0.178294 -1.47406 1.40927 -1.42325 -1.13282 -1.05346 1.30522 0.360282 0.409974 1.12117 -0.271793 -1.13419 0.0139002 -0.247771
221 0.794594 3.62578 -0.270034 0.896787 1.45406 -3.18005 -0.0824969 -1.67211 1.48875 -1.42473 -1.03264 -1.02314 1.39871 0.424606 0.396317 1.03194 -0.304971 -1.10722 0.0799143 -0.242836
159 0.427648 2.31378 0.0382923 0.330901 1.06047 -2.06564 -0.0307217 -1.25366 1.04957 -1.06947 -0.816041 -0.804759 0.726583 0.306963 0.316732 1.0371 -0.163083 -0.792508 -0.0590262 -0.243832
244 0.825058 3.4422 -0.23863 0.847075 1.43445 -3.15682 -0.201111 -1.50635 1.45568 -1.4859 -1.16984 -1.01103 1.32935 0.350858 0.394661 1.11929 -0.352976 -1.28848 0.0331868 -0.288036
431 0.521942 2.81867 -0.183715 0.461592 1.16899 -2.50522 -0.167734 -1.31485 1.22486 -1.12928 -1.08343 -1.01301 0.913749 0.159811 0.267102 1.01639 -0.239572 -1.02033 -0.0738366 -0.367405
438 0.739236 3.69894 -0.383661 0.825056 1.28945 -3.17138 -0.208083 -1.58353 1.42284 -1.54628 -1.209 -1.12006 1.09568 0.253649 0.415912 1.07575 -0.238315 -1.17592 0.0399165 -0.469192
449 0.686916 3.44494 -0.279896 0.704646 1.28652 -3.00129 -0.16616 -1.49704 1.38418 -1.49929 -1.0852 -1.04404 1.10949 0.275464 0.482311 1.04108 -0.257585 -1.22058 0.00717657 -0.534148
145 0.765679 3.81334 -0.378358 0.829459 1.45339 -3.30094 -0.185513 -1.62968 1.47237 -1.51429 -1.17233 -1.10152 1.30277 0.230301 0.457855 1.0833 -0.311881 -1.35257 -0.0769406 -0.569366
259 0.738182 3.6764 -0.418178 0.749439 1.4054 -3.1739 -0.145326 -1.60082 1.39929 -1.50673 -1.14172 -1.09587 1.20205 0.267245 0.452628 1.08824 -0.212053 -1.33057 0.0194869 -0.481365
231 0.401429 3.27275 0.14903 0.589436 1.20942 -2.65059 -0.273609 -1.70476 1.32952 -1.5344 -0.909731 -1.3504 0.62605 0.306164 0.542976 1.1764 -0.200612 -0.819419 -0.0124588 -0.00204838
326 0.804972 3.61367 -0.505451 0.46721 1.17827 -3.20709 -0.247846 -1.64325 1.18474 -1.96479 -0.716648 -0.971217 0.959737 0.289835 0.37874 1.19339 -0.28495 -0.958388 0.120415 -0.183753
57 0.359593 3.30392 -0.104611 0.495243 1.23455 -2.70542 -0.394372 -1.55379 1.17326 -1.69933 -0.557742 -1.27115 1.10353 0.382301 0.423352 0.848963 -0.201263 -0.996202 0.364461 0.00760566
361 0.368076 3.22318 -0.00237579 0.418214 1.25577 -2.7886 -0.328746 -1.58745 1.21719 -1.69008 -0.8763 -1.1864 0.923306 0.405421 0.447948 1.07753 -0.219646 -0.946674 0.164396 -0.0481382
341 0.569718 3.46782 -0.334239 0.614106 1.04733 -2.9759 0.00146554 -1.58053 1.10129 -1.99927 -0.613791 -1.02254 0.933891 0.284814 0.233466 1.00045 -0.0741038 -0.85503 0.0786672 -0.1937
171 0.575359 3.24542 -0.280155 0.51827 1.3202 -2.8826 -0.101012 -1.46433 1.17591 -1.45911 -1.01476 -1.0595 0.765189 0.210083 0.345959 1.21455 -0.241535 -1.1634 -0.193054 -0.459348
154 0.518879 2.83491 -0.170232 0.455928 1.28929 -2.66643 -0.18141 -1.33292 1.33941 -1.30192 -0.937927 -0.969833 0.778288 0.127721 0.236248 1.151 -0.168206 -0.951126 -0.14027 -0.250943
42 0.609609 2.81151 -0.0750228 0.484705 1.3373 -2.86927 -0.354164 -1.28975 1.17181 -1.43946 -1.02317 -0.993942 0.945433 0.0858955 0.234264 1.24008 -0.11828 -1.14995 -0.0824665 -0.11875
316 0.722129 3.19119 -0.0118976 0.60457 1.33999 -2.93228 -0.095966 -1.51961 1.25395 -1.38623 -1.04389 -1.04261 0.819506 -0.0199686 0.249623 1.23519 -0.101694 -1.2534 -0.246622 -0.220088
227 0.961133 3.84223 -0.277706 0.716169 1.41221 -3.1874 -0.239123 -1.74593 1.37908 -1.59847 -1.1998 -1.08308 0.908074 0.0598273 0.323973 1.23053 -0.273524 -1.20895 -0.124456 0.0506147
383 1.01607 3.54998 -0.244157 0.701512 1.2258 -2.88611 -0.594935 -1.68438 1.13734 -1.73721 -1.33404 -1.18366 0.867235 0.295633 0.512984 1.00712 -0.449828 -0.816036 0.20382 -0.059119
352 0.575431 3.41248 -0.119228 0.617569 1.3076 -3.00379 -0.211047 -1.54356 1.35973 -1.59599 -1.0549 -1.00365 0.84384 0.00050903 0.249086 1.23519 -0.155418 -1.08537 -0.387472 -0.0873302
103 0.556907 3.55897 -0.271831 0.758818 1.36222 -3.05932 -0.0788713 -1.54489 1.30911 -1.42383 -1.09879 -1.10604 1.013 0.142396 0.312498 1.05578 -0.136219 -1.24191 -0.141381 -0.333794
81 0.503813 2.87451 -0.0357103 0.225515 1.2606 -2.64991 -0.155269 -1.51145 1.16925 -1.37638 -1.02614 -0.941539 0.755263 0.193278 0.307924 1.19982 -0.221215 -0.786065 -0.0631537 -0.0498068
135 0.464953 3.37925 -0.00112189 0.734072 1.03365 -3.08445 -0.0924422 -1.69635 0.980808 -1.61461 -0.840554 -1.037 0.863821 0.331933 0.310113 1.12747 -0.0200427 -0.883813 0.344692 -0.150164
314 0.457393 2.71492 0.155183 0.33235 1.08376 -2.23157 -0.0864604 -1.46932 1.02458 -1.49938 -0.90929 -0.85075 0.722761 0.206179 0.161816 1.07986 -0.214875 -0.868755 -0.11673 -0.13073
16 0.667071 3.06879 -0.254554 0.326811 1.27803 -2.93642 -0.210762 -1.40744 1.23635 -1.30699 -1.01822 -1.02541 1.0098 0.0621301 0.233563 1.27974 -0.0969527 -1.06761 -0.099125 -0.186029
239 0.780277 3.61097 -0.16284 0.68942 1.36628 -3.06303 -0.116826 -1.61603 1.33354 -1.59324 -1.13419 -1.05758 0.802917 0.0252235 0.151647 1.15119 -0.128953 -1.16753 -0.240087 -0.136134
378 0.433197 3.28918 0.0900889 0.501503 1.25625 -2.5924 -0.188697 -1.62663 1.26709 -1.51389 -0.955536 -0.999065 0.91026 0.437764 0.23386 1.03002 -0.225012 -0.786392 0.0702642 -0.075028
141 0.46334 2.86203 -0.0949856 0.283066 1.1612 -2.72231 -0.181576 -1.56601 0.95353 -1.26798 -1.15155 -1.02156 0.834192 0.323961 0.394945 1.27658 -0.22319 -0.795287 -0.0652756 -0.12668
355 0.494249 3.28428 -0.11735 0.388822 1.22571 -2.9227 -0.360242 -1.72714 1.05009 -1.63632 -1.09708 -1.17195 0.79807 0.321329 0.446649 1.23942 -0.168224 -0.765209 -0.0755112 0.0738785
513 0.679007 3.36328 -0.467882 0.488278 0.969584 -3.13945 -0.221252 -1.59789 1.21525 -1.54371 -0.93567 -0.858742 0.971905 0.229507 0.297935 0.819198 0.157008 -0.649003 0.0951023 -0.241284
120 0.803525 3.3317 -0.0589028 0.599883 1.47168 -2.83526 0.15528 -1.53287 1.15901 -1.85461 -0.598708 -0.811874 0.792493 0.180392 0.312969 1.09415 -0.0549387 -1.03001 0.0629766 -0.149538
191 0.447225 2.38008 -0.041794 0.0968163 0.971516 -2.08986 -0.134763 -1.37642 0.904835 -1.10237 -0.838998 -0.673329 0.680002 0.219392 0.223883 0.877832 0.0920511 -0.785637 -0.00943311 -0.150894
442 0.461897 3.27083 0.0814875 0.473233 1.40766 -2.61151 -0.286031 -1.60904 1.10683 -1.67727 -0.97583 -0.853675 0.833571 0.364227 0.3858 1.1154 -0.145062 -0.904012 -0.0773009 0.087291
60 0.387614 3.77743 -0.41562 0.505414 1.1186 -3.10696 -0.182922 -1.60615 0.925505 -1.93724 -0.906214 -0.88893 1.07787 0.429524 0.553134 1.08764 -0.137074 -0.92591 -0.362906 0.0917917
277 0.427337 3.15904 -0.0167167 0.454963 1.40053 -2.68862 -0.0707729 -1.58752 1.09175 -1.59466 -1.02392 -1.18818 0.859435 0.316807 0.632522 1.06691 -0.279077 -0.986119 0.171212 -0.0415416
13 0.630549 3.15382 -0.106874 0.501727 1.06701 -2.82668 -0.0582183 -1.44012 0.961221 -1.5527 -1.03173 -0.92489 0.529158 0.126074 0.369153 1.16191 -0.22045 -1.10632 -0.454514 -0.181922
47 0.57436 3.17885 -0.0150182 0.632614 1.3009 -2.76868 -0.386841 -1.47013 1.08659 -1.97694 -0.825479 -0.906142 0.698303 -0.0881417 0.436618 0.99761 0.129602 -0.943767 -0.287855 0.0322064
188 0.631088 3.022 -0.319137 0.417306 0.708349 -2.39019 -0.735189 -1.24385 0.844752 -1.74442 -0.94761 -0.697702 0.716622 0.395841 0.449825 0.591804 0.00412725 -1.27177 0.052125 -0.19262
385 1.13301 5.82318 -0.914186 1.26946 1.20546 -4.57538 -0.798274 -2.03569 1.80027 -2.90733 -1.03542 -1.27826 1.62158 0.18654 0.52033 0.797077 0.324605 -1.83651 0.311094 0.465224
292 0.983754 5.71919 -0.84699 1.14034 1.24915 -4.49702 -0.755931 -2.01199 1.86967 -2.83648 -0.97321 -1.27017 1.62482 0.185816 0.362378 0.845525 0.376645 -1.96278 0.358969 0.523386
46 1.05921 5.73294 -0.907324 1.07985 1.24407 -4.42419 -0.804347 -2.03271 1.86657 -2.8278 -0.994298 -1.34747 1.56466 0.104959 0.340333 0.864666 0.356579 -1.94423 0.392125 0.460757
480 0.962974 5.45257 -0.812599 1.07547 1.13451 -4.24469 -0.691 -1.90892 1.81581 -2.68449 -1.00549 -1.20901 1.41532 0.177343 0.390036 0.712327 0.30336 -1.9391 0.322155 0.503948
153 0.985401 5.45046 -0.908469 0.963543 1.13907 -4.21586 -0.712585 -1.90685 1.85084 -2.69228 -0.93705 -1.22183 1.51877 0.160479 0.351421 0.82413 0.372707 -1.96286 0.36038 0.509598
330 0.985821 5.78801 -0.920957 1.15011 1.28078 -4.53367 -0.80328 -2.06946 1.93167 -2.89746 -1.01667 -1.27606 1.6145 0.192973 0.416576 0.870438 0.31468 -1.96158 0.275664 0.456391
331 1.01668 5.69201 -0.881113 1.1037 1.24474 -4.39729 -0.695606 -1.97097 1.90634 -2.77164 -0.966235 -1.30046 1.64916 0.122535 0.423989 0.840901 0.30623 -1.98748 0.41243 0.507162
162 0.943958 5.64408 -0.87978 1.12233 1.19778 -4.31041 -0.799834 -1.93441 1.88079 -2.73701 -0.992816 -1.25729 1.57653 0.221745 0.324956 0.796956 0.293747 -1.96042 0.378561 0.48352
268 0.439175 3.14629 0.013754 0.46833 1.16771 -2.75651 -0.206734 -1.59048 1.13373 -1.53508 -0.99709 -0.981967 0.899395 0.510421 0.339228 1.21261 -0.0734071 -0.858029 -0.00293829 -0.164538
501 0.359009 3.85449 -0.396591 0.667344 1.17496 -3.09684 -0.189013 -1.68655 1.00445 -1.7471 -1.11056 -0.938173 0.866223 0.453385 0.651091 0.945655 0.19097 -0.99756 -0.406037 -0.149681
295 0.0909571 1.30118 0.203593 0.244257 0.639384 -1.28915 -0.0064257 -0.763848 0.582972 -0.826292 -0.411072 -0.644807 0.453309 0.260626 0.223877 0.655974 -0.186349 -0.407383 0.00421582 0.125066
427 0.270437 2.38656 0.163646 0.301176 1.07588 -2.28348 -0.151309 -1.35358 1.13772 -1.25951 -0.911582 -1.06004 0.899353 0.287001 0.301686 1.21032 -0.260774 -0.729397 0.125381 0.0635155
264 0.442832 3.04997 -0.0384929 0.113957 1.0651 -2.62757 -0.259576 -1.615 1.06757 -1.48602 -0.733822 -0.861768 0.600078 0.221965 0.0242545 1.45095 -0.176401 -0.766264 0.00669199 -0.170789
452 0.56222 3.22969 -0.0984563 0.615615 1.23429 -2.73099 -0.0657684 -1.55245 1.34807 -1.46987 -0.943833 -0.979171 1.05957 0.496824 0.258849 1.07047 -0.241922 -0.975325 -0.121097 -0.187308
531 0.734448 3.66982 -0.253907 0.705533 1.41995 -2.97036 -0.254934 -1.5485 1.3713 -1.56451 -0.904082 -1.02594 0.985692 0.0844649 0.319964 1.09564 -0.232176 -1.2447 -0.251867 -0.0851601
443 0.606958 3.3701 -0.118013 0.539673 1.35799 -2.81234 -0.143714 -1.71273 1.23568 -1.32096 -0.95439 -1.10852 1.10639 0.356462 0.303378 1.11424 -0.229078 -0.835858 0.231234 0.00162943
324 0.365783 3.3224 -0.282341 0.38582 1.28182 -2.70323 0.00796675 -1.67365 0.777443 -1.67033 -0.965742 -1.05988 0.726566 0.182324 0.587688 0.892197 0.00690145 -0.907407 -0.189042 -0.0611072
514 0.195161 3.3036 -0.108044 0.391958 1.23551 -2.63999 -0.0263363 -1.7367 0.835853 -1.67319 -1.01818 -1.1562 0.780397 0.314488 0.562695 0.971043 -0.00468766 -0.910067 -0.330121 -0.1079
306 0.544819 3.07099 -0.0467204 0.224733 1.17447 -2.56404 -0.39919 -1.72888 1.04847 -1.32255 -1.25076 -1.03097 0.764738 0.366499 0.494125 1.09898 -0.0922655 -0.836658 0.096892 -0.0937242
430 0.592424 3.12793 -0.225188 0.407006 1.2211 -2.77101 0.0262251 -1.5042 1.18728 -1.41213 -0.906832 -1.00132 0.578415 0.14152 0.213018 1.25456 -0.158883 -1.07951 -0.280925 -0.169046
367 0.699444 3.57263 -0.253894 0.732245 1.36282 -3.12335 -0.0183893 -1.5987 1.29316 -1.51606 -1.00566 -1.15384 0.990488 0.148074 0.296471 1.14135 -0.149599 -1.18658 -0.167819 -0.271964
420 0.46708 3.02109 -0.0392145 0.292044 1.33737 -2.75935 -0.235413 -1.4608 1.20599 -1.61208 -0.87425 -1.08565 0.789564 0.293838 0.323569 1.25182 -0.122241 -0.764945 0.132972 -0.00681534
368 0.715084 3.50367 -0.384123 0.423081 1.15197 -3.21038 -0.253823 -1.56944 1.17403 -1.85866 -0.801465 -1.07528 0.956655 0.307593 0.104545 1.23593 -0.329013 -0.874875 0.134836 -0.303342
447 0.570523 3.14368 -0.1735 0.169113 1.14737 -2.84793 -0.211248 -1.60371 0.943137 -1.79232 -0.626902 -0.905139 0.735429 0.341474 0.435844 1.31581 -0.192216 -0.871498 -0.11463 -0.127448
245 0.882972 3.80864 -0.422269 0.990472 1.48601 -3.35765 -0.168345 -1.64449 1.51583 -1.53123 -1.19421 -1.13035 1.43034 0.338459 0.475061 0.966876 -0.373399 -1.23728 0.116864 -0.34581
504 0.63831 3.45455 -0.217821 0.499621 1.09085 -2.93226 -0.0442639 -1.60229 1.21061 -1.56621 -0.877457 -1.03279 0.715404 0.0316555 0.262487 1.28427 -0.107654 -0.916404 -0.272842 -0.111628
89 0.408103 3.22902 -0.17965 0.202182 1.18251 -2.60544 -0.0120898 -1.61091 0.99983 -1.52322 -1.12067 -1.00529 0.594047 0.350505 0.552557 1.24253 0.0339018 -0.816896 -0.374492 -0.132209
370 0.793853 3.17347 -0.050394 0.708951 1.39862 -2.61492 -0.196003 -1.58278 1.17008 -1.821 -0.677063 -0.665089 1.13736 0.474203 0.213831 0.743831 -0.200908 -0.805098 -0.0198683 -0.116225
26 0.671759 3.08092 -0.0965717 0.218601 1.45359 -2.63423 -0.286223 -1.57478 1.08019 -1.70067 -0.758282 -0.74101 0.634354 0.369359 0.391448 1.22122 0.060555 -0.870833 -0.326951 -0.129952
483 0.373573 1.75676 0.0937518 0.281512 0.822982 -1.47481 -0.0915045 -0.901831 0.845874 -0.963716 -0.62766 -0.578167 0.676263 0.147256 0.224695 0.787584 -0.0807951 -0.611188 -0.0919454 -0.184152
150 0.61039 2.78527 -0.0196184 0.0971373 1.19096 -2.35588 -0.334696 -1.66899 1.01512 -1.43076 -1.51456 -1.25293 0.514003 0.192168 0.289958 1.25874 -0.144369 -0.716374 0.15784 -0.182125
291 0.717894 3.76123 -0.376077 0.839043 1.44641 -3.24596 -0.167308 -1.57091 1.47611 -1.4478 -1.11821 -1.09025 1.19248 0.274969 0.481325 1.04654 -0.286559 -1.26812 -0.016834 -0.603321
177 0.755497 3.39322 -0.143344 0.463806 1.20372 -2.64747 -0.438966 -1.76485 1.02487 -1.63868 -1.43195 -1.18011 0.714714 0.271942 0.350176 1.15547 -0.173863 -0.778159 0.255762 -0.21517
325 0.519835 2.47495 0.376299 0.366212 0.625544 -2.50643 -0.0584761 -1.45394 1.03245 -1.51707 -0.861175 -0.837424 0.577778 0.267992 0.313966 1.05089 -0.344667 -0.820442 -0.201115 0.00135263
19 0.410702 2.49943 -0.105394 -0.108452 0.890214 -2.14075 -0.140225 -1.39805 0.933843 -1.45114 -0.724833 -0.790553 0.49226 0.292539 0.240406 1.25778 -0.309195 -0.593576 -0.118262 -0.137343
131 0.38668 2.10239 0.0605093 -0.0258593 0.837051 -1.79706 -0.106414 -1.18331 0.806177 -1.29112 -0.469468 -0.660871 0.332373 0.145385 0.0688911 1.28236 -0.155882 -0.52264 -0.112521 -0.213515
468 0.269549 2.97481 0.176203 0.222746 1.26971 -2.67729 -0.355095 -1.69098 1.34838 -1.48919 -0.74972 -1.24302 0.936863 0.290171 0.382781 1.14466 -0.248096 -0.865801 0.159597 0.0963288
105 0.456344 2.82597 -0.0194846 0.238414 0.987296 -2.52107 -0.247125 -1.45202 1.1362 -1.45433 -0.723184 -0.837706 0.62983 0.263917 0.158098 1.37388 -0.182869 -0.767159 -0.0448833 -0.0961498
288 0.162289 1.48656 0.246197 -0.262942 0.556939 -1.49288 -0.0322366 -1.13567 0.758378 -0.853115 -0.560527 -0.666814 0.377343 0.0944863 0.00245692 1.29294 -0.129146 -0.548714 0.0191224 -0.321102
208 0.547377 3.20297 -0.0403768 0.255142 0.993703 -2.71701 -0.25836 -1.75148 0.929455 -1.74996 -1.0831 -1.0658 0.723929 0.297284 0.430734 1.05171 -0.211849 -0.656035 0.218905 0.0583218
266 0.379858 2.56597 -0.245598 0.0134289 0.88213 -2.08877 -0.143066 -1.47003 0.975308 -1.07916 -0.665815 -0.654166 0.789933 0.319146 0.232239 0.819333 0.0688333 -0.71578 0.0166542 -0.147791
522 0.238982 2.5484 -0.0365532 0.162647 0.870952 -2.11813 -0.0790927 -1.43712 0.963092 -1.2317 -0.976971 -0.866135 0.755015 0.395951 0.46528 1.05092 0.280209 -0.795047 -0.276692 -0.0537597
50 0.507753 2.57146 -0.00476915 0.120642 1.11102 -2.11561 -0.301946 -1.4672 0.914778 -1.37205 -1.31512 -1.15105 0.459794 0.238974 0.360139 1.15916 -0.120152 -0.518844 0.154758 -0.14419
401 1.50937 5.3655 -0.563939 1.72992 0.986757 -5.29955 -0.653701 -2.238 1.35587 -3.04622 -1.61229 0.0375234 1.2801 0.186045 0.908666 1.52905 0.284287 0.298866 -0.532172 -0.816491
506 1.47878 5.3652 -0.632879 1.67869 1.00739 -5.36479 -0.753331 -2.23866 1.3444 -3.00219 -1.61502 0.00868274 1.27224 0.214333 0.886494 1.54897 0.329638 0.257945 -0.590963 -0.889153
143 0.533684 2.9638 0.154661 0.346119 1.33048 -2.55335 -0.150854 -1.62949 1.0532 -1.6078 -1.11594 -1.16883 0.694867 0.125097 0.350914 1.14316 -0.175739 -0.741461 0.0124102 -0.0497255
39 0.156645 1.91952 -0.0108829 -0.0174179 0.721951 -1.85415 -0.140997 -1.22264 0.828505 -0.944887 -0.706647 -0.639636 0.672597 0.200438 0.310538 0.898839 0.0422202 -0.634444 -0.118744 -0.0727773
303 1.05627 5.43066 -0.75895 1.78301 1.66118 -4.67705 -0.00661737 -2.15829 1.64135 -2.5661 -0.349024 -1.65045 1.88117 0.0733372 1.23934 0.945553 0.0322285 -0.406841 -0.0919822 -0.805879
238 1.10705 5.74427 -0.780022 1.86239 1.64569 -4.90506 0.0499673 -2.2988 1.64284 -2.72219 -0.402014 -1.69135 2.07726 0.0713602 1.33832 0.992944 0.0654542 -0.354332 -0.0865952 -0.702661
290 1.11719 5.7015 -0.8296 1.83062 1.69509 -4.91596 0.0251668 -2.26292 1.67097 -2.72675 -0.390998 -1.72784 2.04557 0.108322 1.22418 0.990575 0.0825928 -0.475088 -0.027373 -0.712301
252 1.16727 5.78476 -0.888447 1.83338 1.65147 -4.86572 -0.0297826 -2.28311 1.75147 -2.67489 -0.403122 -1.72264 2.06347 0.119714 1.28082 0.90879 0.0190844 -0.360442 -0.0594929 -0.762384
69 1.08614 5.60168 -0.79474 1.82021 1.68304 -4.87139 0.077146 -2.22162 1.62772 -2.72054 -0.390338 -1.70736 2.02607 0.14312 1.28976 0.979845 0.053489 -0.421075 -0.103429 -0.803436
99 1.04887 5.51266 -0.700769 1.75067 1.60641 -4.71731 0.0556147 -2.22551 1.65058 -2.62677 -0.354667 -1.68168 1.9136 0.100663 1.28838 0.979466 0.0236889 -0.45693 -0.0662661 -0.861755
126 0.511294 2.04502 0.0521514 0.181065 0.941919 -1.81905 -0.384954 -1.12295 0.797874 -1.07618 -0.621866 -0.530589 0.599434 0.258837 0.326174 0.786294 -0.137038 -0.484941 -0.0198899 0.201771
507 -0.0386742 1.65354 0.168573 0.082023 0.549133 -1.29278 -0.0644353 -1.11034 0.434943 -0.741449 -0.582634 -0.440954 0.449003 0.334398 0.371937 0.678743 0.166696 -0.524642 -0.2451 -0.140472
363 0.326124 2.34013 0.165294 0.404898 1.1226 -2.19035 -0.0506722 -1.2311 0.914298 -1.16977 -0.755759 -0.781684 0.80135 0.462032 0.414261 1.05949 -0.0789078 -0.497988 0.114781 -0.0314468
519 0.620909 2.77375 -0.0783715 0.286297 1.15916 -2.21505 -0.294358 -1.50149 1.00736 -1.46486 -1.42386 -1.15925 0.460098 0.247874 0.355399 1.16379 -0.207622 -0.6346 0.193557 -0.287425
414 0.219187 1.51292 0.0742446 0.0228542 0.65759 -1.29502 -0.129658 -0.849952 0.603424 -0.760708 -0.512727 -0.516087 0.456538 0.378387 0.315891 0.732463 -0.106133 -0.52977 -0.103347 -0.0343664
32 0.141952 1.75091 0.249577 -0.230596 0.853624 -1.7284 0.0313597 -1.24699 0.683997 -0.987682 -0.600679 -0.751751 0.34492 0.351665 0.190459 1.24723 -0.275375 -0.360869 -0.103132 -0.142796
38 0.456974 2.87123 -0.0949654 0.253931 0.966067 -2.58764 -0.247359 -1.43719 1.13331 -1.3929 -0.741475 -0.779465 0.639256 0.201538 0.0436842 1.32939 -0.124994 -0.812714 0.126227 -0.101812
80 0.802749 2.98964 -0.268749 0.51347 0.860392 -2.53386 -0.72392 -1.31002 0.771846 -1.89334 -0.988219 -0.654124 0.538876 0.548791 0.55079 0.583224 -0.206599 -1.14578 0.00139154 -0.504549
226 1.14337 5.58309 -0.871106 1.12865 2.2714 -4.74434 0.194385 -2.09904 1.82167 -2.44105 -0.188356 -0.944466 2.06344 1.22292 1.54413 0.871004 -0.00348824 -1.91705 0.810645 0.0760799
83 1.16597 5.69462 -0.913863 1.11173 2.37088 -4.79221 0.222646 -2.16614 1.86289 -2.44446 -0.25447 -0.941371 2.118 1.25175 1.51785 0.817153 -0.108025 -1.99981 0.806674 0.0835344
18 1.17783 5.63187 -0.89204 1.16888 2.36769 -4.80901 0.185415 -2.10347 1.91365 -2.54453 -0.243311 -0.870169 2.14538 1.27191 1.53225 0.870822 -0.097304 -1.91833 0.770428 0.150169
